// The contents of this file are licensed under the Creative Commons
// Attribution 4.0 International License: https://creativecommons.org/licenses/by/4.0/
// Neural Network File Format by Kyle Julian, Stanford 2016
3,50,5,50,
50,50,50,5,
0,
0,0,0,0,0,0,0,0,0,0,0,1.274469733,0,0,0,0,0,0,0,0,0,0,0,0,0,0,0,0,0,0,0,0.803103328,2.106584549,0.551064909,0,0,0,0,0,0,0.068158701,0,0,0,0,0,0,0,0,0
0,0,0,3.900075913,7.727480412,0.000577837,0.737158775,0,0,3.873924732,0,8.620280266,0,5.889041901,0,2.193501949,5.35457325,3.689601421,1.667727828,0.633063257,5.430505753,1.857785344,1.805924296,6.572310925,0.13813138,7.621076584,0,1.20408535,0.108834907,0,0.46102047,6.538898468,13.78781509,11.90389633,0.39670378,0,0.882894099,0,1.561385632,0,4.385929108,1.847944737,0.820578516,2.884871721,3.077262878,5.268610001,0.154066131,0,4.426979065,2.191904068
0.0,0.0,0.0,0.0,0.0,0.0,0.0,0.0,0.0,0.0,0.0,0.0,0.0,0.0,0.0,0.0,0.0,0.0,0.0,0.0,0.0,0.0,0.0,0.0,0.0,0.0,0.0,0.0,0.0,0.0,0.0,0.0,0.0,0.0,0.0,0.0,0.0,0.0,0.0,0.0,0.0,0.0,0.0,0.0,0.0,0.0,0.0,0.0,0.0,0.0,0.0,
1.0,1.0,1.0,1.0,1.0,1.0,1.0,1.0,1.0,1.0,1.0,1.0,1.0,1.0,1.0,1.0,1.0,1.0,1.0,1.0,1.0,1.0,1.0,1.0,1.0,1.0,1.0,1.0,1.0,1.0,1.0,1.0,1.0,1.0,1.0,1.0,1.0,1.0,1.0,1.0,1.0,1.0,1.0,1.0,1.0,1.0,1.0,1.0,1.0,1.0,1.0,
-1.69473e-01,-1.03007e+00,5.93824e-01,-3.38295e-01,2.09267e-01,2.17493e-01,2.82646e-01,1.64080e-01,8.47151e-01,-7.09383e-01,3.55731e-01,8.51368e-03,2.30222e-01,6.13130e-01,-2.10447e-03,-7.25392e-02,1.29506e-01,-1.63513e-01,-9.85782e-02,-6.05079e-01,-1.35279e-01,-4.52584e-01,4.46829e-01,-4.41123e-01,-2.97429e-02,2.03976e-01,8.39317e-02,-5.35231e-01,7.32104e-01,-1.13080e+00,-1.06300e-01,1.65051e-01,-4.95938e-03,-2.05156e-01,2.52767e-02,-5.09672e-01,-1.17627e-01,-1.21789e-02,8.52722e-02,-8.39977e-01,1.77017e-01,5.91938e-01,-4.45001e-01,7.26944e-01,4.73024e-01,-5.78123e-01,9.35903e-02,-1.58796e-02,2.71254e-01,6.60591e-01,
1.43577e-01,1.57256e-01,2.10021e+00,2.91818e-01,-6.46289e-01,-2.04413e-01,1.70395e+00,-9.09241e-02,2.71345e+00,-3.73817e-01,7.77598e-01,-7.37466e-02,3.47773e-01,-2.78903e-01,3.62949e-02,-2.05270e-01,-2.19531e+00,-4.36689e-01,1.33267e+00,4.79349e-01,-2.02983e+00,-5.98320e-01,-2.93505e-01,-3.59685e-01,-2.78916e+00,-2.06597e+00,-5.86336e-01,-3.88229e-01,-1.60516e-01,-5.22225e+00,-5.44925e-02,2.94967e-02,-2.45091e-02,-9.17015e-01,5.31314e-01,6.31571e-01,2.12404e+00,7.76355e-01,3.36582e-01,8.99602e-01,1.06138e+00,1.10148e+00,1.54140e+00,2.05923e+00,1.53419e+00,-1.75343e-01,9.65602e-02,-8.13101e-03,-1.93434e-01,-9.96148e-01,
1.19997e-03,-2.54742e-01,2.02776e-01,-3.14264e-02,-1.40569e-01,4.90016e-01,-1.11690e-01,5.16098e-01,1.63042e-01,3.16937e-01,-2.10767e-01,-1.57627e-01,-9.44560e-02,-3.40132e-01,3.13630e-02,4.40250e-02,5.42488e-02,6.55882e-02,4.14036e-01,-1.71993e-01,-1.24623e-01,7.86032e-02,-9.73331e-02,6.14180e-02,-1.82836e-01,-2.58007e-01,-9.53505e-02,-7.12494e-02,2.75942e-01,-5.66053e+00,-2.60924e+00,7.26355e-02,-6.92279e-02,-1.02569e-01,1.15596e-01,-2.12374e-01,-3.66205e-01,-9.09374e-03,-1.33603e-01,-1.11884e-01,4.70368e-02,2.23978e-01,-1.33480e-01,1.56666e-01,4.00056e-01,4.84032e-02,-3.05145e-01,2.05837e-03,-1.94817e-01,-7.19632e-01,
-5.12819e-01,-1.55515e+00,3.80889e+00,-6.69636e-01,-5.95168e-01,-3.35302e+00,-9.51652e-01,-2.33358e+00,6.15630e+00,1.25516e-02,6.23092e-01,-1.90052e+00,6.38503e-01,-3.33116e+00,-3.12064e-02,-3.24169e-01,-2.49058e+00,8.61782e-01,-1.33819e+00,-4.22818e+00,-8.47625e-01,-1.05883e-01,-3.30000e-01,1.77039e+00,2.70489e+00,1.43031e+00,-1.20832e+00,-2.31104e-01,-1.13776e+00,9.47140e+00,-6.71943e-01,4.46878e-03,-1.37839e-01,-5.93724e-01,-4.22652e-01,-1.76687e+00,1.65993e+00,7.55269e-01,2.10153e+00,-1.27609e+00,1.58772e+00,-2.78202e+00,3.61769e-01,-2.00126e+00,-7.78894e-01,1.23621e+00,7.88718e-01,3.86314e-02,-2.03662e-01,-2.71628e+00,
1.56280e-01,1.12975e-01,-2.69600e+00,-9.29159e-02,-1.14286e-01,-2.39392e+00,-3.21934e-02,3.52787e-01,-2.21858e-01,-2.08618e-02,-3.93997e-01,-9.92529e-02,9.12523e-02,-2.17130e-01,-1.67364e-02,-1.99261e-01,-3.10063e-02,1.67790e-01,2.99587e-02,2.82117e-01,-8.86747e-01,-4.72178e-02,1.12031e-02,7.26206e-01,1.85312e-01,1.19465e-01,1.12261e-02,-9.60156e-02,2.19136e-01,3.21126e-01,-6.08714e-02,-3.59181e-01,1.00634e-01,-1.71019e-01,1.21608e-02,3.29051e-01,-1.37075e+00,5.06645e-01,2.18327e-02,3.47524e-01,-3.66647e-01,1.84254e-01,-9.86234e-02,-1.14808e-01,-3.41026e-01,-4.12896e-01,-4.21376e+00,2.82555e-02,3.62087e-01,-2.27503e+00,
-1.81160e-02,-6.88114e-01,3.55782e-01,-1.58535e-01,3.26831e-02,-7.04587e-01,-7.46711e-02,-1.87797e-01,3.18406e-01,-4.69804e-01,2.89892e-02,-1.94649e-01,3.99100e-01,1.78563e-01,-1.23404e-02,8.23342e-02,1.18463e-01,-5.98330e-01,-3.58356e-02,3.58180e-02,2.43321e-01,-4.33698e-01,4.48077e-01,-4.85438e-02,-1.56686e-01,1.04779e-01,1.41928e-01,-1.78951e-01,6.23091e-01,-3.71928e-01,1.63470e-01,-9.22999e-02,-5.67132e-02,-8.21873e-02,3.28512e-02,-5.01440e-01,2.03289e-01,-9.62860e-02,5.73721e-02,-1.55016e+00,2.57796e-01,2.25554e-01,-2.01173e-01,3.64526e-01,-9.98764e-03,-9.85847e-01,1.82788e-02,-2.36860e-02,-7.23469e-02,4.47116e-01,
7.40150e-01,-3.97148e-01,1.79801e+00,9.96511e-02,-1.42658e-01,-5.47512e-01,2.00878e-02,3.94112e-01,2.36619e-01,-1.16650e-02,5.21026e-02,-4.52225e-01,-8.21851e-01,-7.59356e-03,4.02091e-03,-6.67074e-02,-4.24326e-03,2.08753e-01,-2.34869e-02,7.68873e-02,-1.30060e-01,-9.89095e-03,4.85464e-02,4.71453e-02,9.20901e-01,4.89362e-03,2.18371e-02,4.06351e-02,-2.45331e-01,2.54714e+00,-1.27445e-02,1.20106e+00,-3.75378e-01,-1.04825e-01,-7.11360e-02,-3.91505e-01,3.09504e-01,9.63099e-02,-5.07734e-01,5.36791e-01,6.06857e-02,3.46801e-02,7.32768e-01,-1.26133e-01,-1.33468e-01,-7.54325e-02,3.76699e-01,-7.77351e-03,2.25494e-01,-7.34792e-01,
-2.03088e+00,-1.55727e-01,-2.48909e-01,-1.85697e-01,4.02917e-01,-3.90676e-02,-2.81417e-01,6.83850e-01,1.05825e+00,-5.79026e-01,2.18483e-01,-2.42370e-01,9.80957e-01,-7.75960e-01,-1.27888e-02,1.89330e-01,-6.23748e-01,-7.17682e-01,-6.06729e-01,2.17902e+00,-1.01283e-01,-6.06275e-01,7.36636e-01,-3.91787e-01,7.27771e-01,-5.87775e-01,-8.34278e-01,-4.73717e-01,2.51169e-01,2.23663e+00,5.79148e-01,5.88325e-01,3.50588e-01,-8.64033e-01,3.78410e-01,-9.29261e-01,9.85265e-02,2.68590e-02,-1.09312e-01,-2.03724e+00,-2.10657e-01,3.46805e-01,-1.20065e-01,-1.04870e+00,2.76480e-01,-1.70485e+00,6.19824e-02,-1.70093e-02,-3.37802e-02,4.53055e-01,
1.34509e-01,-1.45003e+00,2.92652e-01,-1.87551e-01,-2.31918e-02,-4.87730e+00,-1.66230e-01,-8.32317e-01,6.29619e-01,-2.14393e-01,-2.32775e+00,8.82944e-03,5.08135e-01,-2.07935e-01,6.73275e-03,-2.98272e-01,1.51668e-01,3.84905e-02,-1.48084e-02,5.22095e-01,3.46454e-02,8.72506e-02,-2.94643e-01,5.66773e-01,1.13618e+00,2.11747e-01,-4.18215e-01,4.28726e-01,-3.29257e-01,2.60937e+00,-1.12890e+00,-4.49990e-01,-7.64455e-01,-2.65432e-03,-3.21170e-02,1.38089e+00,-2.45790e+00,6.15875e-02,-7.74395e-01,-6.66606e-01,3.95994e-01,1.70767e-01,-2.03539e-01,8.46183e-02,4.78258e-01,9.36237e-02,2.13258e-02,1.03008e-02,5.75720e-01,-4.47920e-02,
2.21371e-01,-4.62056e-01,-1.04637e+00,-8.47253e-02,-8.63158e-02,-6.65620e-01,8.10122e-03,-4.75918e-02,1.67965e+00,-8.80703e-02,2.76837e-01,-3.05258e-01,-1.06463e-01,-2.09559e-02,-2.21157e-02,-3.92417e-02,1.56593e-02,-8.83511e-02,-2.65426e-01,4.95479e-01,1.58834e-02,-3.13959e-02,1.89376e-03,2.01395e-01,4.27881e-01,9.52049e-04,-3.26239e-02,-3.28697e-02,-3.11255e-01,8.35929e-01,3.84777e-02,1.46877e-01,-2.74332e-01,-5.61148e-02,1.10098e-01,3.93372e-01,-3.97495e-01,-2.90429e-01,1.28022e-01,-8.48171e-01,-1.53973e-01,8.74094e-02,1.63239e-01,-5.60784e-02,1.95893e-01,7.80177e-02,2.50380e-01,-2.38414e-02,8.83915e-02,-6.05780e-02,
3.83760e-01,2.00590e-01,-1.64240e-01,-1.21489e-01,4.73864e-03,-7.25031e-01,6.75223e-02,-1.89969e-01,-6.37548e-02,1.56876e-01,1.25627e-02,4.67099e-01,1.49763e-01,5.36317e-02,-1.70047e-02,-7.08157e-02,9.57326e-02,2.32962e-02,4.03031e-01,-2.70950e-01,3.37353e-02,1.46962e-01,-2.40061e-02,1.64953e-01,-6.08584e-01,2.11669e-01,5.63962e-01,6.69437e-02,3.94516e-01,-1.28171e-01,-1.44911e-01,-2.05429e-01,-6.09732e-02,3.78101e-02,8.04393e-02,3.31600e-01,-4.46167e-01,-1.60952e-01,6.77892e-02,2.06843e-01,-3.60530e-02,2.00441e-02,-4.43373e-01,1.51166e-01,4.18186e-02,1.65992e-01,-4.49106e-01,-3.91579e-02,-1.47807e-02,4.80222e-02,
-4.04076e-01,-4.19424e-02,1.41769e+00,-7.65138e-01,-2.32233e+00,6.11769e-01,1.07246e+00,6.53312e-01,1.66853e-01,-4.86954e-01,-3.23731e-01,-5.29300e-01,-1.65618e-01,8.04496e-04,3.33297e-02,-1.25676e-01,-6.34638e-01,-3.71691e-01,2.64503e-01,6.83032e-01,-2.27846e-01,1.15096e-01,-4.50159e-02,2.23376e-01,6.50941e-01,1.28426e-01,-3.37287e-02,-5.89710e-01,3.32945e-01,-1.61720e+00,6.53333e-01,-2.53915e-02,1.30490e-01,-3.98810e-01,-8.89884e-02,1.76723e-01,2.83110e-01,-9.12782e-02,-2.91117e-01,-1.13410e+00,3.94494e-02,1.87399e-01,1.29316e+00,-1.28824e+00,-9.12278e-01,3.94143e-01,7.93827e-01,-2.90338e-02,3.91215e-01,1.76000e-01,
-1.25860e+00,9.53439e-01,3.58845e-01,-1.28209e-01,-1.92998e-01,-1.10010e+00,6.70785e-01,-1.44927e+00,-4.48864e-01,1.11651e-01,4.21026e-01,1.45395e+00,-2.92067e-01,-1.47263e+00,6.61507e-03,-1.12594e-01,-6.69622e-01,1.05545e-01,-4.24528e-01,1.98016e+00,-1.36578e+00,-3.41133e+00,3.88779e-01,3.55398e-01,3.52509e-01,-7.65559e-01,5.17842e-01,-5.89605e-02,-5.44098e-01,8.06625e-02,3.46438e-01,4.21414e-01,-1.32525e-01,-1.23272e+00,-1.30660e+00,-2.13365e-01,7.27457e-01,9.65079e-02,-1.14517e+00,2.12791e+00,9.09574e-01,7.76518e-01,1.37620e+00,-3.99836e-01,2.36509e-01,-4.48613e-02,9.25439e-01,-9.68850e-03,9.80403e-02,-3.74682e+00,
1.44398e-01,9.44435e-01,-6.52346e+00,-1.40787e-01,-7.71333e-01,3.61272e-01,-3.29932e-01,-1.09612e+00,-3.53029e+00,-1.62412e+00,5.48050e+00,-4.91052e-01,1.60924e-01,-1.33929e+00,-3.61681e-02,3.08141e-01,-3.88448e-01,-4.44593e+00,-8.15642e-02,2.53660e+00,-1.54709e+00,9.12508e-01,-2.51726e-01,3.07993e+00,-2.83219e+00,-5.13012e+00,1.78755e+00,-7.80049e-01,3.46650e+00,1.22828e-01,7.89207e-01,-1.20975e+00,-4.26088e-01,2.96093e-01,2.23132e-01,-1.07246e+00,-2.48551e+00,2.04708e+00,9.40531e-01,4.19219e-01,-2.83906e+00,3.34849e+00,8.72500e-01,-5.29062e+00,2.40450e+00,-9.64443e-01,-8.39952e+00,-3.94036e-02,-4.03658e+00,-3.31629e+00,
2.16987e-01,4.31716e-01,1.01036e-01,6.76643e-01,-2.39259e-01,-6.44002e-01,4.52170e-01,1.49218e-01,5.75255e-01,5.39549e-01,-1.14147e+00,-3.88974e-02,4.17126e-01,-2.51860e+00,3.29096e-02,-1.29417e-01,-6.19952e+00,5.56412e-01,-3.08438e+00,-4.74449e-01,-5.78393e-01,-7.92406e-02,-1.55042e+00,8.05285e-01,-3.48269e-01,-5.67471e-01,1.19641e-02,-9.91636e-02,-1.73113e+00,1.92840e+00,-2.25436e-01,-1.64566e-01,-8.72910e-02,-2.01831e-01,-5.96637e-02,4.19267e-01,-3.24364e-01,7.83502e-01,-1.70940e-01,-1.46647e-01,3.15248e-01,-1.92383e-01,4.49949e-01,-1.28941e+00,-1.84316e+00,3.23579e-01,8.54937e-02,3.01617e-02,2.55968e-01,-2.36518e+00,
-6.51774e-02,1.31578e-01,4.55438e-01,-2.38157e-01,-1.65716e-01,5.89775e-01,1.65163e-01,2.24065e-01,-5.83999e-02,-1.45891e-01,-1.74407e-01,-2.13818e-01,-8.59563e-02,-6.52727e-02,-3.76936e-03,-9.17978e-02,-6.88946e-02,3.41639e-02,-1.52660e-01,4.77196e-01,8.37651e-02,3.67946e-02,-7.26499e-02,7.53374e-02,1.71091e-01,5.49605e-03,-2.33555e-01,-1.19967e-01,-6.84520e-02,-1.28383e+01,-8.80406e-01,-1.63688e-01,3.93510e-02,-1.81738e-01,-8.16960e-02,-2.55844e-01,-2.18750e-01,-2.96748e-01,2.27985e-01,-3.89049e-01,3.87661e-02,1.55939e-01,-1.11301e-01,8.86789e-02,9.00578e-02,2.27072e-03,3.50527e-02,2.60911e-02,3.82048e-01,2.24350e-01,
-4.67969e-01,-2.85720e-01,-1.41029e+00,-1.45105e+00,-5.93991e+00,1.38801e+00,-7.31097e-01,8.83655e-01,-8.18314e-01,-2.51310e-01,1.52338e+00,-8.53826e-01,2.49576e-01,-9.78616e-02,1.63493e-02,-5.91605e-02,2.08357e-02,-3.03835e+00,-9.47109e-03,1.32725e+00,-1.99150e+00,-3.85439e-01,-1.09491e-02,-6.65930e-01,-1.02611e+00,6.77868e-02,-2.55052e-01,-2.08263e-01,5.69563e-01,5.05852e-02,7.18921e-02,2.02451e-01,-1.38924e-01,-3.39872e-01,8.77640e-02,5.45014e-01,-1.29585e+00,-7.59556e-01,-7.97292e-01,-1.09192e+00,-1.32351e+00,9.53724e-01,-3.25783e-01,1.35595e+00,6.49024e-01,-2.72836e+00,5.77709e-01,-3.58155e-02,5.70440e-01,-3.85399e-01,
2.82938e-01,1.68018e+00,1.07629e+00,-6.20943e-01,4.34746e-02,2.96723e-01,1.20450e+00,-2.44555e-01,9.68058e-01,-1.26185e-01,1.02860e+00,7.49134e-01,-1.60557e+00,-3.15543e-01,-3.12326e-02,-1.39754e-01,1.17409e-01,1.36566e-01,9.86693e-02,1.65825e+00,3.71837e-01,-3.51298e-01,-2.99128e-02,-2.28720e-01,-4.07847e-01,7.92935e-02,-1.91510e-01,-3.41003e-01,7.76699e-01,7.92872e-01,-1.12557e+00,2.86089e-01,-6.59899e-01,1.99452e-01,1.12973e-01,-5.00828e-01,-4.81456e-01,1.09779e+00,1.78231e-02,4.37044e-01,-3.93423e-02,-2.21312e-01,5.65016e-01,-6.98320e-02,-1.74937e-01,2.14048e-01,3.46389e-01,-4.62240e-02,-3.73601e-01,-3.78589e-01,
-2.82119e-02,6.55421e-01,-1.92449e+00,-4.43030e+00,-3.76537e+00,1.63412e+00,-5.12826e-01,5.59951e-01,-4.36864e-01,2.83807e-01,-4.70535e-02,-8.90888e+00,-4.38095e-01,-1.65175e-02,-1.99490e-02,-2.02189e-01,1.14961e-01,1.02691e-01,8.20977e-03,-1.52767e-01,9.08944e-01,-2.72886e-02,-4.95957e+00,4.34976e-02,1.05570e-01,-2.87552e-02,7.17929e-02,-2.44871e-01,-8.63109e-04,-7.39313e-01,1.19551e-01,-4.67674e-01,-2.81641e+00,-8.76342e-02,-4.87859e-03,6.98549e-01,9.28057e-01,-1.05840e+00,1.45505e-01,1.04297e+00,-4.67779e-02,-1.13003e+00,7.24863e-01,1.46841e+00,-5.91343e+00,-7.59377e-02,-1.92188e+00,-7.35915e-03,-1.65947e-01,-3.82198e+00,
-2.42008e-01,-1.43518e-02,8.29281e-01,-9.62464e-01,5.98716e-02,4.29408e-03,2.95746e-01,1.56866e-01,1.03791e-01,-2.55729e-01,-4.30983e-01,4.74375e-02,-7.42686e-01,-6.88650e-03,2.25077e-03,-1.10512e-01,-7.11150e-01,7.87291e-02,1.50878e-01,7.90266e-03,-1.33806e-01,1.56908e-02,-3.20961e-01,4.07703e-01,4.40770e-01,-1.04200e+00,-3.75426e-01,-2.62698e-02,8.17547e-01,-5.07463e-01,-1.22921e-01,-1.05363e-01,1.21477e-01,-2.39359e-01,-4.26859e-01,2.75346e-01,2.77036e-01,1.17458e-01,1.00358e-01,2.39277e-01,-6.84942e-02,2.82144e-01,7.71653e-01,-7.04539e-01,2.19761e-01,-3.00022e-01,7.91541e-01,3.46975e-02,2.69311e-01,-4.28704e-01,
6.84779e-01,-1.23925e+00,-2.67095e-01,1.61387e+00,1.42103e-01,-9.21054e-01,-4.51630e-01,-1.28687e+00,-1.08755e+00,4.76307e-01,5.62988e-01,-1.35387e+00,-1.20373e-01,-1.45140e+00,1.06518e-02,5.03995e-02,-3.21986e+00,2.25937e-01,-1.32647e+00,-5.99701e-01,-3.86049e-01,3.17367e-01,-6.93967e-01,6.28627e-01,1.40369e+00,-7.78355e-01,-8.61718e-01,4.12826e-01,-1.35889e+00,9.90398e-01,-1.39497e+00,3.07451e-01,1.98362e-01,4.10512e-01,-3.33451e-01,-1.09430e+00,1.04271e+00,-8.71418e-01,2.39592e-01,-4.30839e+00,-2.55597e-01,-1.11285e+00,-5.98663e-01,-9.39516e-01,1.28542e-01,6.00800e-01,-7.71214e-01,4.68901e-02,3.99295e-01,-1.13734e+00,
-1.21418e-01,8.87225e-02,3.71437e-02,1.18398e-01,-1.93567e-01,-4.85059e-01,-1.66727e-01,-8.66930e-02,8.89451e-01,-1.37104e-01,6.02432e-02,-4.34929e-01,4.03237e-02,-2.05467e-01,4.86817e-02,-9.18316e-03,-2.36275e-01,-6.37436e-02,8.47122e-02,-2.80539e-02,-8.72957e-02,2.51945e-02,-4.15574e-03,-1.09050e-01,3.21388e-01,-1.72110e-01,-3.02408e-01,5.03998e-02,3.94051e-02,-2.07033e-01,-9.05195e-02,2.37472e-01,4.00698e-02,-2.09811e-01,-6.19867e-02,-2.18070e-01,1.27765e-01,1.12882e-01,1.71291e-03,-1.18470e-01,-6.61039e-02,2.95239e-02,4.55934e-01,-2.96326e-01,-1.82833e-01,-3.36458e-03,1.83689e-01,3.93237e-02,1.73754e-01,8.67553e-02,
3.71726e-02,3.34255e-02,1.61873e-01,-2.00124e-01,5.42473e-02,-2.00254e+00,2.18968e-01,-1.16694e-01,-5.84859e-02,7.13410e-02,-3.51633e-01,5.94386e-01,1.29516e-01,-2.41845e-01,9.29755e-03,3.07103e-03,1.19392e-01,1.05445e-01,2.48930e-01,5.71974e-01,2.53325e-01,-3.34011e-02,-6.32295e-02,1.49691e-01,4.72255e-01,1.40529e-01,1.56288e-01,-1.79687e-02,3.52836e-01,1.39679e+00,-5.10451e+00,-7.06279e-01,-4.81158e-01,4.09242e-02,1.94056e-03,-5.01476e-01,3.68214e-02,3.82850e-01,8.85774e-02,-1.56656e-01,8.69260e-02,-6.49707e-01,-2.66136e-01,7.16584e-02,1.00270e-01,2.43436e-02,-1.72501e-01,4.17889e-02,-1.81834e-02,-9.45115e-02,
-5.25492e-01,-2.97079e-01,6.69968e-01,-2.29898e-01,-7.59089e-03,-5.38653e-01,-5.94109e-02,1.11823e+00,-2.04004e+00,6.66147e-01,1.16758e-01,-1.71682e-01,-1.24497e+00,-1.80744e+00,6.90396e-03,1.28635e-01,2.42660e-01,1.74364e-01,1.08595e+00,1.63061e+00,-6.39053e-01,-2.17020e-01,-4.91286e-02,2.97638e-01,-5.63711e-01,-1.27201e-01,2.92218e-02,-8.59784e-01,3.72925e+00,-1.16126e+01,9.44555e-01,-8.92475e-01,6.22695e-01,-7.95862e-02,-5.97896e-02,1.78346e-01,2.23332e-01,7.87762e-01,3.05543e-01,-1.78452e-01,2.88511e-01,-6.99318e-01,4.28386e-01,2.11430e-01,-1.49987e+00,7.34354e-01,-1.62341e-01,2.40091e-02,-4.02675e-01,2.93782e-01,
-6.16888e-02,-5.22319e-01,-1.75403e-01,-5.72232e-02,-2.95034e-01,8.47519e-01,6.41399e-01,2.65849e-01,1.60254e-01,1.33999e-01,1.00854e-01,-1.29023e-01,3.71135e-01,-3.24103e-01,5.77432e-02,-1.10337e-01,-4.13792e-01,-3.51571e-01,-4.50386e-01,2.88996e-01,-4.25387e-01,-4.84391e-01,-1.16950e-01,-2.02581e-01,1.19454e-01,-5.67001e-01,-1.64370e-01,-2.48797e-01,-6.76047e-01,4.38264e-01,-6.89069e-02,4.12898e-02,-4.01866e-02,-4.81069e-01,-1.09339e-01,-1.76187e-01,4.33589e-01,1.23114e-01,-1.13177e-01,7.46687e-01,-3.18235e-01,3.45405e-01,3.84048e-01,-2.86015e-01,1.35669e-01,-2.45525e-01,3.39653e-01,-2.34591e-02,4.79016e-01,-2.45504e-02,
-3.33300e-02,-4.20223e-01,3.95815e-01,1.63183e-01,1.08790e-01,-5.83208e-01,2.09813e-02,-1.84093e-01,-2.45447e-02,4.03770e-02,3.73998e-02,5.59828e-02,2.59972e-01,3.52318e-01,3.50468e-03,-7.83364e-03,1.20631e-01,7.25094e-02,8.20311e-02,-1.56981e-01,4.89784e-03,1.48705e-01,1.42702e-03,1.11936e-01,3.40559e-01,7.24226e-02,-9.59207e-02,-1.52691e-01,8.44416e-02,2.79474e-01,-9.25087e-01,1.65565e-03,-7.94410e-03,1.82121e-01,6.68509e-02,-4.67214e-01,7.48087e-02,-1.74181e-02,-7.56833e-02,-2.85231e-01,5.00349e-02,-1.07036e-01,-4.02067e-01,1.48978e-01,2.66857e-01,1.46448e-01,-1.16426e-01,9.31608e-03,8.34037e-02,1.54813e-01,
3.47632e-01,-3.27401e-01,6.05528e-01,7.14051e-02,-1.42411e-01,4.55937e-01,5.41103e-01,2.10319e-02,-2.68355e-02,-2.52585e-02,5.54241e-02,-1.93942e-01,-1.92940e-01,3.87868e-01,5.25489e-02,7.83566e-02,-5.84597e-01,1.30106e-01,-4.21580e-01,5.03848e-01,-9.26099e-02,-1.14307e-01,-6.89267e-02,6.97529e-02,6.39038e-01,-1.29007e-01,-8.43851e-02,-4.97716e-01,-9.27106e-02,1.91638e+00,8.08919e-02,-6.45766e-02,3.06129e-02,-1.76848e-01,-1.75264e-01,1.13871e-01,6.48880e-01,4.95647e-02,-2.15063e-01,3.94430e-02,-4.78932e-03,1.10907e-01,-3.56772e-01,-2.38222e-01,-7.82477e-02,1.56826e-01,5.06756e-01,-3.44773e-02,3.52656e-01,-3.89609e-01,
2.25502e-01,5.18288e-01,5.58638e-01,-5.15126e-01,2.42073e-02,-4.11341e-01,5.33368e-01,1.75902e-01,6.55053e-01,2.85470e-01,-2.19699e-01,-5.78468e-01,-8.43267e-02,-5.01413e-01,-2.18207e-02,-4.32255e-02,-1.08520e+00,5.02407e-02,-7.86960e-01,1.11122e+00,5.73125e-02,3.56220e-03,-7.93858e-01,1.03274e-01,3.97639e-01,-3.01453e-01,-2.97450e-01,-3.39079e-01,8.26933e-01,1.69057e+00,-9.82163e-02,2.82238e-01,1.62588e-01,-2.08234e-01,-7.78498e-02,8.75148e-01,-5.14450e-01,5.17551e-01,5.72592e-02,9.47806e-01,7.90750e-02,5.68983e-01,1.82329e-01,2.91328e-01,7.67892e-02,1.41164e-01,5.52632e-01,-2.76699e-02,9.35139e-02,-9.48284e-01,
1.15895e+00,-8.29950e-02,-5.24102e-01,1.97089e+00,-1.27179e+00,5.48526e-01,3.43785e-01,-3.96628e-01,-1.19180e+00,4.08974e-01,-2.06459e+00,-2.02667e-01,-6.33527e-02,-1.19364e+00,1.40823e-02,8.65772e-02,-4.49103e+00,1.10932e+00,-2.25927e+00,-3.23453e-02,-7.44064e-01,-1.11839e+00,-2.42957e+00,8.49940e-01,5.54298e-01,-6.70113e-01,3.70126e-01,-2.20629e-01,-3.85987e+00,-8.24130e-01,2.11442e-01,-3.03557e-01,-1.16857e-01,-1.29532e+00,-7.32952e-01,-1.00872e-01,6.93875e-01,1.19253e+00,-1.39031e+00,-2.27825e-01,-6.96725e-01,5.04844e-01,-9.90508e-01,-2.96575e+00,-6.15761e+00,5.33333e-01,-5.60934e-01,-9.89478e-03,-2.07210e-02,-2.56460e+00,
-7.85951e-01,-3.28681e-01,3.74446e-01,1.14356e+00,1.19847e+00,2.08369e+00,1.36180e-01,-1.06309e-01,-2.18635e-01,5.93345e-01,3.91423e-02,9.03166e-01,-9.47125e-01,-4.92236e+00,2.59727e-02,3.38586e-01,-1.58461e+00,-6.39623e-01,-2.84456e+00,-1.54997e-01,-6.77088e-01,-8.64413e-01,-9.10358e-01,8.01957e-01,-1.95189e+00,-9.72723e-01,-1.21003e+00,-6.79640e-01,1.30227e-01,1.09733e+00,1.76463e-01,-5.14259e-01,-3.55506e-01,-1.22066e+00,3.46918e-01,-2.85534e-01,1.88585e+00,1.66253e-01,-2.40732e+00,6.80006e-01,-7.11498e-01,6.58677e-01,-3.30327e-01,-2.69763e+00,-3.18395e+00,-5.92807e-01,-3.79946e+00,8.61641e-03,-9.17362e-01,1.33944e+00,
-1.71358e-01,6.86050e-02,1.14928e+00,2.34316e-01,-4.70365e+00,1.37581e+00,1.98473e-01,8.32273e-02,8.19678e-01,-3.39479e-01,2.95730e-01,-1.42371e+00,-1.13211e-02,5.36265e-01,-6.33912e-03,2.48133e-02,-6.05547e-01,2.47199e-02,-4.69479e-01,-6.61784e-01,2.28349e-01,1.31695e-02,1.25972e-01,3.33957e-01,1.59128e+00,-4.38937e-01,2.50153e-01,2.79078e-03,1.55318e-01,2.35161e+00,2.12905e-01,-4.43533e-02,-3.61112e-01,-5.34815e-01,-3.47611e-02,-3.65633e-01,3.33822e-01,-2.56212e-01,-1.67313e-01,2.15808e-02,4.53897e-01,5.55970e-02,1.11809e-01,-1.69443e+00,-6.54436e-01,-1.76017e-01,-6.30552e-01,-4.43466e-02,2.23919e-01,-2.59162e-01,
-1.02436e-01,-6.73777e-01,5.00149e-01,-2.98093e-04,8.62572e-02,1.51607e-01,6.09693e-02,-6.18773e-02,3.97015e-02,-8.51725e-02,-1.73721e-01,-1.92096e-01,1.82840e-01,2.72879e-02,-1.12374e-03,1.10674e-02,1.46052e-01,-1.40955e-01,4.37451e-02,1.43911e-01,1.07347e-02,-2.13025e-01,1.21274e-01,7.23060e-03,4.18219e-01,1.21135e-01,5.74224e-02,-2.75107e-02,-9.28366e-02,-2.58989e-01,1.59599e-01,-1.06149e-01,-5.85228e-02,1.05157e-01,7.58396e-02,-6.50588e-01,2.02809e-01,-1.03471e-01,1.76099e-01,-7.38084e-01,2.58335e-01,-1.89874e-02,-9.24992e-02,2.32200e-01,-1.26591e-01,-1.78581e-01,3.98690e-04,1.21514e-02,-8.31856e-02,2.73500e-01,
-7.74197e-02,-2.74510e+00,3.42553e+00,-2.44947e-01,-5.50098e-02,8.15293e-02,4.95664e-01,-7.38481e-02,1.63168e+00,-2.95548e-01,-3.57785e-01,-1.98872e+00,2.81913e-01,-1.25625e+00,5.59982e-03,4.00101e-01,-1.06225e+00,-3.11013e-01,-2.59961e-01,3.73959e-01,-2.66409e-01,-4.14128e-01,-2.02667e-01,3.02865e-01,1.84527e+00,-4.65850e-01,5.02156e-01,-2.14565e-01,8.68845e-01,5.85983e+00,2.91085e-01,4.91398e-01,-6.77802e-01,-4.17188e-01,-2.41922e-01,-2.05606e+00,1.60784e-01,-5.14009e-01,9.59477e-01,-1.35559e+00,1.55644e+00,1.10811e+00,-4.87294e-02,-1.60510e+00,-1.47092e+00,-5.74466e-01,-9.27018e-01,-3.96964e-02,-5.09766e-01,-1.16949e+00,
-4.65820e-02,-1.36682e+00,6.34261e-01,1.72802e-01,1.09347e-01,-9.94556e-01,-4.38956e-02,-4.68121e-01,-5.98498e-01,-5.73191e-02,-2.34072e-01,8.92677e-03,-9.72811e-02,4.54366e-01,2.79091e-02,-2.08092e-02,2.10291e-01,1.98570e-01,2.09483e-02,4.18835e-02,1.50229e-01,3.29987e-01,1.37503e-02,3.56586e-01,6.44434e-01,9.79573e-02,-2.28731e-01,-2.92858e-01,4.40465e-01,-8.86745e-01,-8.58721e-01,1.48076e-01,3.52383e-02,2.48951e-01,3.92912e-02,-1.10604e+00,-6.04630e-03,-8.23404e-02,-5.01576e-02,7.79250e-02,5.05458e-03,-1.78437e-01,-7.29749e-01,1.58685e-01,5.41662e-01,2.85710e-01,-4.59632e-01,6.01673e-04,2.33931e-01,1.74393e-01,
-2.70405e-01,-8.29149e-01,1.11758e+00,8.12210e-02,-2.13066e-01,-1.99366e+00,3.21590e-01,1.87833e-01,2.39155e-01,-1.41487e-01,-1.10184e-01,-3.75693e-02,-1.06668e-01,-1.18214e+00,-5.14384e-03,8.60025e-02,-2.71834e-01,9.27410e-02,-2.93195e-01,-3.58042e-01,1.84654e-01,-2.06730e-03,9.07337e-02,3.08337e-01,3.32075e-01,-2.91232e-01,1.25674e-01,-3.23324e-01,2.58996e-01,-2.36490e+00,-4.41389e-01,8.24422e-01,-8.17260e-01,-3.43710e-01,3.50233e-01,7.47314e-01,9.33611e-01,2.61506e-02,-3.34746e+00,1.98303e+00,5.51805e-01,-6.35112e-01,-7.71644e-01,-5.62914e-01,9.06002e-01,3.14297e-01,1.85499e-01,3.44345e-02,-3.84720e-01,-4.37223e-01,
3.75018e-01,-1.62315e-01,-7.94787e-01,-1.54189e-01,-8.21326e-01,1.46429e+00,3.39034e-01,5.10719e-03,-2.10812e+00,5.72136e-01,1.78536e+00,-4.56312e+00,3.84742e-01,4.42119e-01,3.92625e-03,-4.01244e-01,1.08877e-01,4.88515e-01,1.89299e-01,-5.63086e+00,2.38409e+00,2.82051e-01,-5.19832e+00,-2.47684e+00,-3.02491e+00,-1.70558e+00,7.54756e-01,-3.35360e-01,3.11846e+00,-1.74678e+00,2.27650e-01,-2.07083e+00,5.79001e-01,-6.05323e-02,-1.46367e-01,1.59787e-01,3.53479e+00,-2.56463e+00,-1.79804e-01,1.17535e-01,-4.16290e+00,-3.73295e+00,-6.20882e-02,9.91151e-01,-4.80972e+00,-2.07371e+00,1.64255e+00,-1.28750e-02,-2.55455e-01,-1.83709e-02,
-1.05000e-01,-1.21279e+00,-5.50133e-01,5.87044e-01,-5.61154e-01,-1.41796e+00,-1.51146e-02,-1.68799e+00,4.16801e-01,4.91335e-01,3.35962e-01,6.57415e-01,-1.64440e+00,-3.11174e+00,1.37700e-02,5.36977e-01,-6.21949e+00,6.31763e-01,-2.62169e+00,-3.26036e+00,-9.31337e-01,-6.11045e-01,-2.70202e+00,9.10757e-01,3.09714e-01,-5.28894e+00,7.79545e-02,-1.48157e-01,8.39103e-01,-1.69264e+00,-3.38113e-01,-4.46136e-01,-1.70762e-01,-6.75154e-01,1.28516e-02,3.31579e-01,-1.14823e+00,1.27874e+00,-1.06469e+00,-8.87167e-01,1.38621e+00,6.03451e-01,-2.62868e-01,-1.64750e+00,-3.68424e+00,3.42282e-01,-7.61820e-01,-3.62020e-02,-1.18587e+00,-1.86409e+00,
-1.36729e-01,-7.41291e-01,8.75438e-01,1.00066e-01,8.56765e-02,-7.95403e-01,1.69397e-01,-8.12254e-01,-1.23112e+00,1.02970e-02,2.17381e-01,-9.33369e-01,-7.02935e-02,1.33380e-02,5.76595e-03,1.97882e-02,1.56158e-01,4.07111e-02,-1.98986e-01,-2.24917e-01,3.36341e-01,3.85615e-02,-1.75373e-01,1.42620e-01,5.36719e-02,1.70501e-01,-1.65520e-01,-2.21205e-01,2.39687e-01,-1.26225e+00,5.51950e-01,-1.31762e-01,-3.10874e-02,2.66559e-01,-1.57395e-01,-7.07253e-01,5.14812e-01,-2.10342e-01,-3.30456e-01,-2.36275e+00,2.01667e-01,-2.07270e-01,-7.39384e-01,7.87498e-02,2.01332e-01,9.20677e-02,-3.04882e-02,1.54209e-02,-9.06038e-02,2.31536e-01,
-1.79265e-02,1.10244e-01,-1.84169e-01,-5.15780e-02,-4.69853e-01,-7.15075e-01,3.46427e-01,3.52720e-01,1.33069e-01,-3.90527e-01,-1.01468e-01,2.15436e-02,2.81866e-01,3.53315e-02,-1.75584e-02,-3.59271e-02,-8.87463e-02,2.30088e-02,2.05113e-01,1.11073e-01,-3.29907e-01,5.13832e-02,1.76968e-02,7.37438e-02,-3.85353e-01,-5.58639e-02,-7.90535e-03,-1.37637e-01,7.86228e-01,-4.60677e-02,-2.21184e-02,-3.96640e-02,5.93279e-02,-1.09488e-01,3.10946e-01,6.35534e-02,-1.51848e-01,-2.73791e-01,-1.35939e-01,4.02131e-01,-2.35028e-01,8.99250e-02,-9.96393e-02,2.33086e-01,-1.35764e-01,-2.58497e-01,3.23289e-01,-5.24728e-02,2.78815e-01,6.83642e-03,
3.75566e-01,2.47807e-01,8.31821e-01,-1.12053e+00,-2.11613e+00,-1.05430e+00,2.83563e-01,6.12050e-01,-4.72907e-02,-7.11134e-01,-2.57875e-01,-1.92830e-02,1.19742e-01,-7.60713e-01,4.74915e-02,-4.74871e-02,4.93281e-02,1.39764e-01,1.18827e+00,-2.27389e-01,-4.49563e-03,4.56736e-02,1.00633e-02,1.46433e-01,1.02221e+00,2.88806e-01,8.52759e-01,-1.28098e-01,7.19597e-01,-1.45676e+01,6.74768e-01,9.18406e-01,-3.84799e-01,-3.63232e-01,5.45398e-01,-7.63458e-01,-1.29730e+00,2.84676e-01,4.32715e-01,1.02346e+00,-7.51607e-01,2.99207e-01,-1.79316e+00,9.48724e-01,1.01858e+00,-1.91123e-01,-8.28233e-01,7.84095e-03,2.06760e-01,9.48392e-01,
9.73395e-03,-3.87155e-01,-2.01139e-01,3.76793e-02,-2.00139e-01,-8.71053e-01,2.32160e-02,-2.47860e-01,-2.50708e-01,7.45393e-02,3.69554e-01,-5.88371e-02,-1.30774e-01,-1.03141e-01,-2.06540e-02,2.38070e-01,-2.54392e-01,-9.73468e-02,-3.32587e-02,-5.98218e-01,-1.37651e-01,-2.43489e-01,5.34477e-02,2.15411e-01,-6.14835e-01,-1.54995e-01,2.53653e-01,-1.27990e-01,9.17628e-02,-1.27155e+00,1.75456e-01,-1.87990e+00,-5.21756e-02,-7.21364e-02,-1.83898e-02,-4.62464e-01,-5.38975e-03,2.52473e-01,2.83554e-01,-7.81041e-02,-5.59165e-02,2.65362e-01,-4.69358e-01,2.79549e-02,2.70452e-02,-3.45733e-01,-3.01588e-01,2.83160e-02,-1.04835e-01,-1.14599e-01,
9.93610e-03,-3.31624e-01,1.03244e-01,2.01010e-02,1.95166e-02,-6.26204e-01,-6.77506e-02,-1.83717e-01,-4.62329e-01,-1.72648e-02,-2.23951e-01,1.04575e-01,1.37081e-01,-6.45249e-02,-3.21693e-02,-3.08815e-02,9.13012e-02,2.05079e-02,7.84100e-02,3.39859e-01,1.41636e-01,-1.66765e-02,-5.22053e-02,6.67900e-02,3.61456e-01,8.51553e-02,-3.77332e-02,8.43677e-02,-4.88038e-02,9.85010e-01,-1.66458e-01,-3.93216e-01,-2.22361e-01,5.64164e-02,-1.25725e-02,9.91278e-02,-1.30699e-01,4.97134e-02,-8.16864e-02,-6.90200e-02,1.73930e-02,-3.00508e-01,-1.03713e-01,5.00856e-02,-6.08127e-02,-1.31173e-02,3.41953e-02,-1.79829e-02,3.64847e-02,3.63857e-02,
5.42716e-01,-2.84881e-01,-4.30196e+00,-2.77912e-01,1.14021e-01,1.07453e+00,-8.71149e-01,-1.18792e+00,8.29937e-01,4.84451e-02,2.16223e-02,-4.44421e-01,-2.11127e+00,-6.48553e-02,-3.10061e-02,-2.00090e-01,1.21138e-01,-4.45219e-01,-6.20692e-01,-3.49218e-02,3.98946e-02,-1.52526e+00,1.37949e-01,1.54275e-02,9.49853e-01,6.92926e-02,2.02533e-01,1.61118e-01,9.57416e-01,3.20050e-03,-9.96851e-01,5.32550e-01,8.47795e-02,-5.27421e-01,-1.42959e-01,2.78537e-02,4.11195e-01,-7.05621e-01,-5.46245e-01,-1.66322e+00,2.49793e-01,8.22396e-02,-3.55072e-01,-5.93246e-01,-9.74054e-01,-6.73341e-02,-5.33659e-01,-2.84988e-02,5.03378e-01,2.13124e-01,
-9.37429e-02,-6.14771e-01,5.74087e-01,-9.95807e-01,-2.79647e-01,1.14052e-01,-7.74811e-02,5.90707e-02,-4.76187e-01,2.94036e-02,-1.93339e-01,-3.81636e-01,4.40694e-02,-2.36013e-01,-3.14724e-02,5.59882e-02,-6.33820e-02,-4.28932e-04,-6.99201e-02,-2.30933e-02,-9.65740e-02,-1.69848e-01,-1.98844e-02,-4.18925e-03,1.33805e-01,-6.88685e-02,-9.52642e-02,-4.45876e-02,-1.10481e-01,5.48486e-01,-9.38674e+00,2.70117e-01,-3.31187e-02,-1.89313e-02,-1.50144e-03,-6.58235e-01,3.88079e-01,-1.49576e-02,1.28336e-01,-6.27472e-01,7.17125e-03,7.80303e-02,-2.88807e-01,-1.48744e-01,-1.55975e-01,-1.43190e-01,-6.72474e-02,-1.90112e-02,-1.03504e-01,-3.20199e-01,
-8.54777e-01,-8.04487e-01,3.86719e+00,4.27518e-01,4.43657e-01,-8.87188e-01,-5.99435e-02,-2.72807e+00,3.73308e+00,-2.47997e-01,3.25671e+00,-9.15271e-01,-8.13812e-01,4.73852e-01,1.76869e-03,-2.27941e-01,8.03855e-03,3.09495e-01,-1.22599e+00,2.36919e+00,3.13498e-01,6.96946e-01,-4.95688e-01,5.48642e-02,5.03274e+00,3.14784e-01,-1.28138e+00,-7.95324e-01,-1.52996e+01,1.46633e+00,1.88726e+00,2.17677e-01,1.56062e-01,3.90813e-01,5.73270e-01,-2.48782e+00,-1.56245e+00,2.00359e+00,3.29996e-01,4.87211e+00,-2.94628e+00,-1.28871e+00,-1.07984e+00,7.28982e-01,-1.54083e+00,8.76284e-02,2.91228e+00,1.52962e-03,-2.26068e-01,9.44708e-01,
6.03471e-02,8.84705e-01,2.42111e+00,2.70771e-01,9.66464e-03,-6.11919e-02,5.96101e-01,1.55451e-01,2.23760e+00,-1.33937e-01,1.28030e-02,-4.61751e-01,-2.65171e-01,-1.13588e-01,-2.41218e-02,2.38320e-01,-1.85620e-01,-1.31358e-01,-1.53198e-01,2.80668e-01,-1.23442e-01,4.03498e-03,1.57140e-01,2.75949e-02,1.07377e+00,-2.86675e-01,-2.36920e-01,-1.55615e-01,-4.65769e-01,2.37829e+00,2.16574e-01,8.67811e-02,4.79979e-02,3.44449e-02,6.05079e-02,-5.96257e-01,5.45714e-01,3.07647e-01,4.65394e-02,-1.01244e+00,1.61261e-01,-4.96996e-02,1.49079e-01,-3.79314e-02,8.85242e-02,-1.55845e-01,1.24564e-01,9.62962e-03,4.25885e-01,-1.53100e-01,
-1.09546e-01,-6.87897e-01,4.15421e-01,-2.16894e-01,1.28069e-01,1.83706e-01,2.05175e-01,2.65236e-02,-5.08679e-02,-1.69715e-02,-1.31480e-01,8.01082e-02,-1.69388e-02,1.32084e-01,1.63130e-02,3.37704e-02,6.29529e-02,1.36747e-01,1.05605e-01,-6.26045e-01,6.60877e-02,1.14989e-01,1.97466e-01,1.63532e-01,-1.31197e-01,9.44511e-02,-1.31388e-01,-1.91837e-01,9.61356e-02,8.92717e-02,-1.96840e+00,-1.13729e-01,8.05298e-02,4.06929e-02,4.69088e-02,-7.07170e-01,-3.00784e-01,-4.30995e-03,-1.48604e-02,5.80635e-02,2.34681e-01,2.53711e-02,-1.29839e-01,2.38674e-01,2.74998e-01,1.88001e-01,-5.25955e-02,-4.58653e-03,-7.46666e-02,9.63384e-02,
4.18294e-01,-1.40829e+00,-2.72308e+00,-2.36537e-01,-2.69111e-01,3.90895e-01,-2.49988e-01,1.09420e+00,-4.78285e+00,-3.56567e-01,5.06880e-02,1.71199e-01,-1.87532e-01,-6.08907e-02,3.97453e-02,-1.69937e-01,3.63912e-01,2.77519e-01,8.18219e-01,5.48657e-01,3.63706e-01,-1.63131e-01,3.73368e-01,2.06227e-01,-3.85680e-01,6.36599e-01,1.92114e-01,-6.62641e-02,-7.18695e-01,-2.02090e+00,2.15237e-01,1.99808e-01,-4.00015e-01,1.75947e-01,1.73550e-01,-5.03755e-02,-7.01120e-01,3.47612e-01,3.59963e-01,-3.57123e+00,2.27674e-01,-4.36800e-01,-3.98120e-02,3.15058e-01,-4.72108e-01,6.22114e-01,-5.68403e-01,-4.13331e-02,1.14776e-01,1.42896e-01,
2.33909e-01,-2.42613e-01,-3.61945e-02,2.84611e-01,2.36274e-01,6.74884e-01,6.11067e-01,1.02005e+00,-5.03001e-01,6.19844e-01,-4.61034e-01,8.93672e-01,-7.27651e-01,2.41604e-01,5.08817e-02,3.38783e-01,-9.13141e-01,-3.76204e-01,-1.35445e+00,-7.10616e-01,-1.16109e+00,-2.56560e-01,-1.17938e-01,2.48320e-01,-9.94423e-01,-1.35811e+00,6.37893e-01,-3.21529e-02,-2.85521e+00,4.58857e-01,4.68812e-01,-5.89555e-01,3.08018e-01,2.44781e-02,1.60839e-01,4.16378e-01,-1.95768e+00,-1.08449e+00,4.57028e-01,-8.85686e-01,-8.90147e-01,-1.06989e+01,1.81482e-01,-2.65920e+00,-1.39695e+00,-2.62168e+00,-5.83579e-01,-4.08955e-02,-1.33666e+00,-3.31785e-01,
1.92390e-01,-8.79008e-01,1.01191e+00,-2.31684e-01,-1.51370e-02,-3.05066e-01,-8.84859e-01,-2.64138e-01,2.70586e+00,-1.92166e-01,-5.42771e-02,-3.02712e-01,4.31669e-01,5.00803e-01,5.58784e-03,-6.34604e-02,4.58905e-01,-1.61579e-01,-2.35579e-01,-7.24697e-01,-1.11262e-01,2.44568e-02,6.30016e-01,3.38280e-01,8.28814e-01,-3.49925e-02,-9.19217e-02,-5.46509e-02,-2.37028e+00,1.89336e+00,-7.75442e-02,-4.91432e-02,-1.24378e+00,2.04948e-01,7.13037e-02,1.23239e-01,9.13009e-01,5.94945e-01,-2.24259e-01,-1.03031e+00,-1.63760e+00,2.31807e+00,1.80508e-01,1.63787e-02,1.42455e-01,-6.36434e-01,4.83480e-01,4.02966e-02,-2.91227e-01,8.76066e-01,
3.43884e-01,
-1.48704e-01,
-1.82344e-01,
2.09282e+00,
5.73921e-02,
1.07278e+00,
-3.53750e+00,
2.90246e-01,
1.78528e+00,
5.70392e-01,
1.02578e-01,
-8.67694e-01,
-1.88844e+00,
-1.11489e+00,
-4.45675e-01,
6.94016e-01,
1.27762e+00,
-1.29112e+00,
-1.34225e+00,
-1.59671e-01,
6.45223e-01,
9.88629e-01,
5.16151e-01,
-2.38274e+00,
6.76756e-01,
7.61867e-01,
5.67606e-02,
-2.22461e-01,
1.86957e+00,
1.05205e+00,
-1.07629e-01,
9.06623e-02,
2.55632e+00,
8.75174e-01,
8.27916e-02,
-1.16245e+00,
1.19683e+00,
1.19459e-01,
5.23826e-02,
-2.51440e-01,
9.71201e-01,
4.14523e-01,
5.59316e-01,
7.11265e-01,
-3.24478e+00,
5.80000e-01,
1.65873e-01,
-1.29327e+00,
-3.31041e-01,
-6.54165e-01,
1.98897e-02,-4.04527e-02,-2.77591e-01,3.92536e-02,6.03609e-01,3.59966e-01,-1.15858e+00,8.95053e-02,-1.62616e-02,6.20436e-01,-1.25868e+00,4.35105e-01,4.58625e-01,1.49091e-01,4.10564e-01,1.78846e-01,-1.17309e-01,1.55218e-01,-3.61469e-03,9.42395e-02,-2.64847e-01,-4.68650e-01,-2.37021e-01,-5.36885e-01,-5.63038e-02,2.32914e-01,-6.12577e-02,2.88811e-01,-4.65449e-01,1.32133e-01,-7.28266e-02,-1.02416e+00,-3.15447e-02,-1.08128e-01,-1.46657e-01,1.54259e+00,-1.02172e-01,-3.48272e-01,-1.08634e-01,9.17521e-02,1.18776e-01,-4.90799e-01,4.87253e-02,1.00787e+00,3.29056e-01,-9.60519e-02,1.88903e-01,-5.56117e-01,-3.21128e-01,-4.48875e+00,
-1.24780e-01,4.16074e-02,6.87742e-02,-5.00863e-02,3.77188e-01,-1.49096e-02,6.92364e-01,7.49262e-02,1.37186e-01,9.66477e-02,-7.70169e-03,6.91132e-01,5.18415e-02,7.39989e-03,-1.06759e-01,2.15572e-01,-1.00271e-01,8.62341e-03,4.42313e-01,3.27501e-01,3.45781e-02,8.36259e-02,-1.05687e-01,6.85188e-02,-1.53703e-01,5.46476e-01,1.65681e-02,-1.72390e-01,5.19638e-02,-1.02360e-02,-2.14114e-01,-3.63951e-01,-3.05532e-02,-4.05473e-01,4.00872e-02,7.16206e-01,-1.41947e-02,-1.27810e-01,-1.69800e-01,7.84271e-03,8.31355e-02,-3.37734e-01,-2.40157e-01,1.57107e-01,2.17610e-02,7.33449e-02,9.28964e-03,8.24242e-02,2.93015e-02,3.86904e-02,
-1.47445e+00,-1.20772e+00,-5.33325e-01,-9.24220e-02,2.52431e+00,-9.45134e-01,1.17228e+00,1.98356e-01,-2.61637e-01,4.83425e-01,-6.01054e-01,-9.90522e-02,5.75311e-01,-8.28567e-01,-5.15617e-01,1.23971e+00,-6.46088e-01,1.26715e+00,2.29021e+00,2.52444e-01,2.68733e-01,8.42372e-01,-1.83175e-01,1.50304e-01,2.54647e-01,-7.38135e-02,-1.98423e-01,2.90538e-01,-1.49387e-01,-2.18876e-01,-3.74599e-01,-4.90366e+00,-7.81810e-02,-6.32357e-01,4.07041e-01,-4.81849e-01,1.05639e-01,-6.28227e-01,-1.68271e-01,6.66380e-01,7.77130e-01,5.33160e-01,4.69191e-01,1.29148e+00,-1.13223e+00,2.11952e-02,6.19590e-01,-7.74552e+00,-1.05717e-01,3.23942e+00,
-9.51057e-03,-1.95054e-03,2.89095e-02,-8.20630e-02,3.27190e-01,5.05229e-02,-9.71707e+00,5.50752e-03,6.22835e-02,-5.72328e-02,-1.97326e-01,3.23883e-02,-4.42943e-02,-1.43272e-03,6.01280e-04,1.18867e-01,1.41389e-02,1.08605e-01,-1.47900e-02,1.91224e-01,-5.60275e-02,6.98511e-02,6.38019e-02,5.18239e-03,1.24155e-02,5.87427e-02,-4.08959e-03,-5.19665e-02,-1.66309e-02,2.10846e-02,-1.96554e-01,8.53336e-02,9.46280e-04,4.46118e-02,-8.45010e-02,-3.12124e-01,-2.44352e-04,-3.17970e-02,-3.42911e-02,-1.30440e-02,5.31631e-02,-2.11627e-01,-5.55921e-02,-1.92542e-02,-4.24262e+00,4.48343e-02,-1.43113e-01,9.22184e-02,-2.54486e-02,6.59032e-02,
9.35307e-01,-2.01348e+00,2.52840e-01,-5.38865e-02,-4.49774e-01,9.44573e-01,-3.94612e-01,-4.18140e-01,-8.57970e-01,-2.38316e-01,1.48548e-01,3.34056e+00,-3.84637e-01,-1.52855e-01,5.64274e-02,-1.65735e+00,-1.35135e+00,-9.82294e-01,-1.02439e+00,1.62213e-01,2.15109e-01,-2.48712e-02,-7.45046e+00,2.13618e-01,7.02675e-02,-2.46763e+00,-5.18885e+00,4.41850e-01,1.03554e-03,4.01830e-01,4.02682e-01,-1.79520e+00,-3.60388e-01,9.67219e-01,-2.39407e+00,1.89563e-02,1.14188e-01,-3.06600e-01,1.18485e+00,-9.61912e-01,-5.69975e-01,1.07923e+00,-1.90965e+00,1.77983e+00,1.11557e-01,-4.36792e-01,-6.99963e+00,-7.44146e-01,-4.00978e-02,8.32671e-01,
2.01806e-01,2.51866e-01,-4.90096e-01,-2.80296e-02,5.39718e-01,6.79513e-02,-2.18965e-01,-1.02342e-02,1.41746e-01,2.99070e-01,-8.14449e-02,3.47362e-01,2.40542e-01,-1.72970e-02,-2.01359e-01,-2.96228e-01,-9.80131e-03,-1.33967e-01,1.33377e-01,4.78977e-01,4.88040e-02,-8.26984e-02,-1.02992e-03,-1.82537e-01,-8.28709e-02,7.69363e-02,7.45554e-02,1.50575e-01,-2.78276e-02,-1.85181e-02,1.63408e-01,-3.03076e-02,-7.20884e-02,1.65260e-01,2.20965e-01,3.02963e-01,5.07369e-03,9.75644e-02,-6.25541e-03,7.33538e-04,1.38197e-01,-3.26087e-01,5.32902e-01,-4.42966e-01,5.58153e-02,5.58344e-02,-1.68548e+00,4.54977e-02,-1.07947e-02,2.08993e-01,
-6.66847e-02,-2.53962e-02,3.08655e-01,3.38291e-02,3.31749e-01,9.74110e-02,-2.07588e+00,-2.01514e-01,1.30892e-01,-1.83953e-01,7.42339e-03,5.28813e-01,1.29563e-01,5.18769e-02,-1.36421e-01,1.39617e-01,-1.51884e-01,6.18889e-02,-3.98714e-01,-4.71988e-01,-1.15594e-02,7.33779e-02,4.51285e-01,-7.40297e-02,4.74319e-01,2.13045e-02,1.66832e-01,-1.97219e-01,-4.65246e-02,1.78251e-01,-2.27263e-01,-4.53916e-02,-1.22528e-01,-6.50089e-02,-1.46671e-01,-8.21081e-02,1.36386e-02,1.54392e-01,1.58660e-01,-2.82446e-01,-7.32708e-02,-1.45058e+00,-3.36267e-02,-9.89725e-02,-3.49539e-01,-9.40821e-03,-9.85911e-02,2.11226e-02,5.98756e-02,-4.29466e+00,
-5.00427e+00,1.96102e-01,7.15269e-02,-4.64746e-02,-5.71942e-01,-6.07968e-01,-3.72613e+00,-2.35452e+00,-1.07038e-02,-1.02338e-02,-1.62854e-01,-1.69748e-01,2.66244e-01,3.22437e-01,3.94769e-01,-8.19109e-04,-1.40204e-01,1.28465e-01,4.46514e-01,2.93356e-01,2.26001e-02,6.16584e-02,-1.98242e-01,-1.23650e+00,1.17411e-02,-4.82936e-01,3.34818e-01,-1.19620e-01,-1.93818e-01,-1.61632e-01,-1.90207e-01,8.33688e-02,-6.30484e-02,-2.20690e-01,-5.17292e-02,-8.74935e-02,-1.38440e-01,1.77128e-03,-4.35294e-01,2.87744e-01,2.99813e-01,-4.09951e-01,2.05094e-01,3.68056e-01,-3.11629e-02,-2.37496e-01,2.94526e-01,-5.45813e-02,-3.05311e-02,1.88067e-01,
-2.30212e-01,2.57645e-01,5.58687e-02,-1.29267e-01,1.24365e-01,-1.53042e-01,-1.35548e+01,-1.80085e-02,-1.68386e-01,-3.82196e-02,-2.42393e-01,-1.01956e-01,6.33759e-02,1.92752e-02,-9.54680e-02,4.64098e-02,-5.63242e-02,2.88101e-02,2.87405e-01,-1.97931e-02,-5.14541e-02,3.52470e-01,3.11615e-02,5.27150e-02,7.75790e-02,-8.46086e-02,1.10325e-01,7.09342e-02,-1.10234e-01,-2.83828e-03,5.02477e-02,2.51561e-02,-2.94567e-02,-7.40749e-02,3.04668e-02,4.86518e-01,-5.26309e-02,2.38113e-03,-2.90495e-01,7.17640e-02,1.50426e-01,3.67982e-01,-1.24935e-02,2.63409e-01,-5.47299e-02,-8.13385e-02,3.05185e-01,1.08303e-01,1.64854e-02,1.69850e-01,
-2.75657e-01,-2.09983e-01,-1.44089e-01,1.74152e-02,-2.63190e-01,-6.76406e-03,-1.41265e-01,1.50905e-02,-1.87080e-02,8.25820e-02,-7.42940e-03,-2.20016e-01,8.31982e-02,6.79210e-02,9.59020e-03,-3.34255e-02,-3.97525e-02,1.07058e-01,-2.39416e-01,-4.10243e-02,1.76434e-02,-1.15426e-01,5.66601e-02,7.86331e-03,-1.95441e-01,-5.26434e-01,1.20704e-01,-6.74790e-02,-9.43924e-03,2.25083e-02,-5.45620e-02,6.34920e-01,2.55949e-02,-1.67422e-01,5.19159e-02,4.35645e-01,-1.95408e-02,4.06585e-02,-3.03667e-02,3.25866e-02,9.99786e-02,-1.16919e-01,-1.71080e-02,2.16892e-01,-2.32325e-01,8.60438e-02,-4.95868e-02,-9.82608e-02,2.34298e-02,3.79567e-03,
-2.72714e-01,8.29244e-01,-3.90107e+00,-2.10402e+00,-5.10687e+00,-8.75217e+00,4.65555e-02,-5.34620e-01,4.87414e-01,2.10014e-01,7.83610e-01,1.39895e-01,-3.02957e+00,1.83718e+00,-1.02206e+00,2.92484e+00,-8.19569e-01,-2.38438e+00,3.44952e-01,-4.29874e-02,6.03345e-01,1.83056e+00,5.02666e+00,-8.10870e-02,2.88693e+00,-6.58415e+00,-5.55500e+00,1.20216e+00,5.84584e-01,1.64198e+00,8.23565e-01,-2.00916e+01,-3.36609e+00,-1.18841e-01,3.16146e+00,4.52014e-01,-1.20608e+00,-9.21369e+00,2.93469e+00,-1.40688e-01,-2.55597e+00,2.59165e+00,-1.88994e+00,8.87057e-01,-1.72963e-01,-8.28126e-01,1.02691e-01,-3.03089e+00,3.65761e-01,-9.30378e-02,
-6.79461e-02,-1.95916e-01,1.69520e-01,-2.46394e-01,1.01810e+00,1.23090e-01,-3.60755e-01,-4.68298e-02,3.36101e-03,1.97748e-02,-3.20182e-01,-2.16156e-01,-1.00056e-01,-7.89411e-02,-1.53699e+00,1.75842e-02,2.87724e-02,-3.09856e-01,2.43310e-01,8.13444e-02,-5.05721e-01,3.20795e-01,1.71930e-01,1.68070e-01,2.03999e-01,-4.20966e-03,-7.82321e-02,3.02612e-02,-4.18631e-01,-2.20547e-02,8.71929e-02,-4.92828e-01,3.49153e-02,-3.38563e-01,-1.55861e-03,8.62777e-01,-2.92731e-01,-4.21078e-02,-1.48815e-01,7.59600e-02,1.27954e-01,-3.00573e-01,-8.57670e-02,3.22720e-01,9.17590e-02,6.57804e-02,3.91725e-01,-1.20698e-01,-1.99395e-01,-5.24600e-02,
-2.18528e-01,9.63922e-02,2.69749e-01,-4.16330e-02,8.09256e-01,2.69737e-01,-3.13619e-01,-1.96264e-01,-1.45953e-01,-7.46597e-02,-1.37048e-01,-2.28837e-01,1.55980e-01,-2.50702e-01,4.20915e-01,2.87591e-01,1.61199e-01,1.97730e-02,-1.31894e-01,4.23508e-01,-1.85774e-01,2.85834e-01,1.63367e-01,1.28440e-01,-5.18864e-02,-1.05136e-01,1.31903e-02,-1.37910e-01,-3.11046e-02,1.24779e-01,1.29509e-01,1.41044e-01,-2.05755e-02,-1.60281e-01,5.70478e-02,-2.68819e-01,-2.24209e-01,7.40425e-02,-1.26724e-01,2.94541e-02,3.47832e-02,6.18416e-02,-6.32139e-03,2.96443e-01,-6.00648e-02,1.62630e-02,3.80712e-01,-6.40574e-02,-6.22073e-02,9.71152e-02,
4.36474e-02,-2.98087e-02,-1.49880e-01,-1.13116e-01,8.48855e-02,8.26430e-02,-1.93417e+00,-3.01826e-02,1.10709e-01,1.67787e-01,-3.07157e-01,-3.95570e-01,3.01285e-02,1.03570e-01,-1.10484e+01,-3.42867e-02,-1.14120e-01,-2.13341e-01,9.77588e-01,-5.18196e-02,-2.35971e-01,-4.59661e-02,5.06094e-01,-1.84792e-02,-3.37622e-01,-3.24197e-01,1.75483e-01,7.43243e-02,-5.23952e-02,-3.14567e+00,-1.28594e-01,-1.20705e-01,-3.05571e-02,1.16315e-01,-6.28323e-02,6.58526e-01,-9.23211e-02,-3.82784e-02,1.18329e-02,3.48346e-02,-3.57506e-01,-1.03295e+00,-2.90241e-02,7.32027e-02,-2.12804e-01,-1.42649e-02,-1.02122e-01,3.04184e-02,-7.15536e-01,4.36484e-01,
-1.68243e+00,-1.70720e-01,-3.19248e-01,1.18979e-01,1.96849e+00,4.09732e-01,-3.36174e+00,6.43817e-02,-6.66286e+00,-5.14641e-01,2.96831e-01,2.20771e-01,-1.85411e+00,2.03729e-01,1.33806e+00,5.22016e-01,-2.02730e-02,2.74436e-01,9.32702e-01,5.97552e-01,-6.21650e-01,-1.99416e-02,-1.41941e-01,5.79189e-01,8.67244e-01,7.16547e-01,2.58470e-01,-9.93358e-02,-4.98766e-01,-2.65733e-01,-9.07610e-01,-7.76178e-01,-3.23001e-01,-1.30278e+00,1.08366e+00,-2.47010e+00,-2.77873e-01,-6.48003e+00,-1.66253e+00,1.29899e-01,3.95711e-01,5.43235e-01,4.65780e-01,2.22622e+00,-4.82305e-02,-8.65136e-02,4.85549e-01,1.08002e+00,8.59485e-03,3.50852e-01,
-1.39210e-01,1.79277e-01,-2.94366e-01,-8.02601e-03,-4.32188e+00,5.87101e-02,-4.86855e-01,-2.10261e-02,-1.47860e-01,2.64653e-01,-3.42642e-01,5.36665e-03,-1.71982e-01,-4.87724e-02,-8.62592e-02,2.67170e-02,-7.98149e-02,8.78861e-02,-9.84905e-02,6.59401e-02,-2.98882e-03,-5.21552e-02,-3.18630e-01,4.18259e-02,6.02772e-01,-3.36505e-02,-1.94111e-01,9.18568e-02,-1.99109e-02,-4.75386e-02,1.14137e-01,2.74512e-01,-2.03150e-03,1.36451e-01,-4.03213e-02,-9.44392e-01,-4.08341e-02,-1.82266e-01,-4.26630e-01,8.31194e-02,1.62978e-01,-3.48014e-02,5.23761e-02,2.94997e-01,-2.99867e+00,3.31841e-02,2.94317e-02,-7.24005e-02,-1.43845e-01,-4.98435e+00,
-3.32703e-03,3.34581e-01,-4.39898e-02,1.67441e-02,1.17819e-01,7.02821e-02,6.29481e-01,-3.37133e-02,3.48010e-02,7.96670e-02,-3.19666e-02,2.78502e-01,-2.32784e-02,-4.48060e-02,-5.91184e-02,-4.23848e-02,-4.09006e-02,6.78595e-02,7.66320e-02,3.14002e-01,1.12597e-02,1.05288e-01,-1.69719e-02,-2.64637e-02,-8.16537e-02,3.82217e-02,1.35921e-02,-1.51093e-01,3.70202e-02,2.97890e-02,-1.23578e-01,-2.51470e-01,-4.20174e-02,-2.70411e-01,7.12157e-02,2.13186e-01,1.46440e-03,-1.31762e-01,-1.01606e-01,-8.93192e-03,3.93341e-03,7.56914e-02,-1.96468e-01,-1.44556e-02,1.46362e-02,5.65129e-02,1.41059e-01,-3.10966e-02,-7.26053e-04,-8.96467e-02,
-4.33162e-02,1.58955e+00,-6.67105e-01,-9.17730e-02,1.13252e+00,-7.70350e-01,2.08934e-02,7.09856e-01,-1.17233e-01,2.61234e-01,-2.08980e-02,-9.78000e-01,-1.39766e-01,4.62314e-01,-2.75348e-01,-2.02163e-01,-8.58469e-02,-2.39986e+00,-4.61281e-02,3.85406e-01,-7.73820e-05,-6.65704e-02,5.23450e-01,-1.62508e-01,5.38210e-01,9.59434e-01,-6.37208e-01,3.09124e-01,1.04505e-01,4.25570e-02,6.09722e-01,-9.64998e-01,-4.44570e-01,-6.59763e-01,6.21852e-01,4.05847e-01,-3.48235e-01,1.32588e-02,-4.40028e-01,-1.24403e+00,-8.42776e-02,8.49720e-01,-5.38346e-02,1.20414e+00,1.31087e-01,1.33048e-01,-3.22756e+00,-3.28796e-01,7.82389e-03,-2.01408e-01,
-1.55230e+00,-6.02873e-01,5.97125e-01,-1.00441e+00,-2.57599e-01,-9.16550e-01,-2.13973e+00,1.02161e-01,2.70494e-01,3.47687e-01,-1.21125e-01,-3.94878e+00,-8.89872e+00,3.89165e-01,3.82029e-01,-2.51777e-01,-1.00012e-01,1.09148e-01,3.32837e-01,7.07380e-01,-3.23896e-01,4.77587e-01,-8.80549e+00,-1.54642e+00,5.95579e-01,4.18610e-01,1.04418e+00,-1.07095e+00,-6.59843e+00,-3.09844e-01,1.71748e-02,1.35858e+00,-7.96002e-01,-1.77651e+00,-5.69002e+00,8.59866e-01,-1.81583e+00,2.06551e-02,-6.06330e-01,-1.48280e+00,-1.37665e-01,-1.15438e+00,1.63555e+00,4.44153e-01,-3.09471e-01,-3.01987e-01,2.01048e+00,-7.61288e-01,-1.02032e-01,2.00867e-01,
8.92677e-04,-9.87551e-02,-6.35048e-02,8.99302e-03,-1.72508e-01,-2.60620e-02,-1.90673e-01,-1.82574e-02,-1.98497e-02,-1.73256e-02,-4.05101e-02,-5.45256e-01,-1.00293e-01,3.28637e-03,4.00577e-02,-1.39615e-01,1.41782e-02,-1.09145e-01,1.11689e-01,1.35806e-01,-2.96077e-02,2.30913e-02,6.10583e-02,-1.03507e-01,1.03383e-01,-7.38322e-01,2.28774e-02,-6.14437e-02,-4.84427e-03,-1.42132e-02,6.76433e-02,-7.83575e-02,2.14801e-02,1.09481e-01,3.95514e-02,-5.80651e-01,-6.21782e-02,-2.25799e-02,-5.87909e-02,2.85735e-02,4.37886e-02,3.75812e-02,-6.03999e-02,-6.51216e-02,-9.59490e-02,7.65383e-02,9.37720e-02,7.83948e-03,-2.68929e-03,-2.51691e-02,
-6.32891e-02,-1.10602e-01,-4.80748e-02,-1.78147e-02,-8.33551e-02,-5.74300e-02,-7.50529e-01,-4.38618e-02,-5.04125e-02,-1.06762e-01,1.19024e-01,4.55624e-01,-1.06961e-02,5.77347e-03,-3.20729e-03,-6.14625e-02,4.02448e-02,3.27475e-02,-1.02614e-01,-1.32129e-01,-9.90827e-03,-9.06967e-03,-1.18944e-01,6.88663e-02,1.24913e-01,-1.39330e-01,6.96416e-02,6.49565e-02,-7.70107e-03,-2.36689e-02,2.82124e-01,-1.90660e-04,6.40069e-02,-6.03495e-02,1.30785e-02,-3.71818e-01,3.75105e-02,-4.12379e-02,2.31959e-02,-5.12220e-02,-4.18580e-02,2.91480e-01,-4.64367e-02,-2.65376e-01,-1.95458e-02,6.59533e-02,-4.01076e-01,-5.55650e-02,2.36368e-04,-8.66756e-02,
-2.86537e+00,1.22957e+00,-1.33339e+00,-9.90793e-01,-4.61914e+00,1.30496e-01,-7.29716e-01,-4.33011e-01,-2.19488e-01,-2.48907e-02,1.06786e-02,-2.78505e-01,3.02346e-01,7.00928e-02,1.97389e-01,6.39315e-01,-1.21222e-01,-1.61772e+00,-2.75718e-01,4.94009e-01,-1.97905e-02,6.39123e-04,-2.28071e+00,-3.76904e-01,3.44001e-01,5.67198e-01,6.38964e-01,-3.47610e-02,2.11639e-02,-1.61883e+00,-1.98462e-01,1.32542e+00,-6.61963e-02,-2.80263e+00,-2.15901e-02,-1.12066e+00,-1.26275e-01,-2.74760e-01,1.50371e-01,-1.44402e+00,-2.66481e-01,7.46744e-01,3.87438e-03,-4.09873e+00,-3.99614e-01,6.69503e-02,-7.20556e-01,3.39061e-02,6.55410e-02,1.86405e-01,
-9.79547e-01,1.07139e+00,7.84348e-01,-2.78449e+00,2.48911e+00,-5.83602e+00,-3.13225e-01,-2.78774e+00,6.68405e-01,-1.18664e+00,-3.83716e-01,-6.67197e+00,-4.55182e-01,-6.36727e-01,-6.47615e-01,-6.90024e-02,-1.41081e-01,-2.09129e-01,-7.94158e-01,3.32777e-01,-6.00919e-01,5.76879e-01,3.19476e-01,-1.00014e+01,4.56261e-01,-2.82611e+00,-3.66903e-01,4.49860e-01,1.42230e-01,6.60273e-02,6.27272e-01,3.67585e+00,-4.61515e-01,-2.55719e-01,1.19046e-01,9.68955e-01,8.16525e-03,-4.73109e+00,-4.60942e-01,-9.17594e-03,-2.39200e-01,-1.32123e-01,1.53455e+00,8.83328e-01,-8.05511e-01,7.70920e-02,7.63631e-02,-8.85894e+00,8.87412e-02,-4.12980e-01,
-1.53644e-01,-2.87349e-01,8.08311e-01,-6.28978e-01,6.63088e-01,2.31850e-01,-2.56736e-01,3.52762e-02,2.22856e-01,1.18616e+00,-5.66045e-01,-6.75674e-02,-1.65601e-01,-1.63859e-01,2.00155e-01,2.39950e-02,-9.60529e-02,2.53796e-01,7.69675e-01,7.25459e-01,-8.55869e-02,-2.44877e-01,1.19597e+00,-1.66850e+00,2.53541e-01,1.88197e-01,3.97901e-01,4.60387e-01,-3.51397e-02,6.81529e-02,-5.28977e-01,5.40457e-01,1.58271e-01,3.23115e-01,-4.34301e-01,1.21686e+00,-2.38481e-01,1.65752e-01,1.02420e-01,8.73295e-02,-9.38522e-02,-2.85917e+00,-4.71219e-02,-4.79273e-01,-7.91096e-01,-3.06436e-01,-8.93522e-01,-3.18296e-02,-6.40807e-02,-2.26259e+00,
-5.31871e-01,4.40242e-01,-1.63629e+00,-4.17775e-02,1.27859e-01,-5.19937e-02,-1.15597e+00,-1.90037e-01,-9.34847e-02,2.75287e-01,8.66005e-03,-4.39248e+00,-3.97998e+00,8.61073e-02,1.09046e-01,2.47382e-01,-1.37702e-01,-2.22782e-02,-2.66128e-01,-3.04263e-01,-6.55528e-03,1.50133e-01,3.52539e-01,-1.08880e-02,1.14355e-01,4.63151e-01,1.69575e-02,-2.07989e-01,-4.83871e-02,1.54826e-01,2.48027e-01,-1.84490e-01,-4.73515e-02,-2.51402e-01,2.84190e-01,1.38438e+00,1.13555e-02,1.26817e-01,6.09463e-01,-3.01245e-01,-4.13303e-02,-6.63619e-01,-7.01459e-01,8.68543e-02,-2.79274e-01,-1.42292e-01,-3.05523e-01,6.15831e-02,-1.32336e-02,2.21011e-02,
-2.30329e-03,1.48607e-01,-1.28516e-01,-1.79663e-03,-1.63784e-03,5.34232e-03,-2.14901e-01,7.41416e-03,1.36522e-02,-1.96705e-01,-1.19092e-02,1.15581e+00,1.54440e-02,1.96616e-02,-5.46345e-03,6.37994e-02,-2.77860e-02,-8.48974e-02,2.54027e-01,3.72250e-02,1.04256e-03,-2.58186e-01,-8.74720e-02,1.12173e-03,1.49587e-01,1.85585e-02,1.41074e-02,-2.17506e-03,8.65630e-04,-9.16727e-02,-6.23790e-01,-6.89335e-03,-1.34756e-01,-6.78465e-03,-3.19778e-02,2.91578e-01,-2.28568e-03,-4.89068e-03,-4.97504e-03,9.40699e-03,-1.66916e-01,-1.06968e+00,2.26610e-02,-1.16812e-01,-5.13320e-03,-5.64019e-03,3.95107e-03,6.85955e-03,-2.41078e-03,-6.98923e-01,
4.64698e-02,5.51384e-01,3.59815e-01,-8.02145e-02,5.90648e-01,-5.44443e-01,-2.58539e-01,-7.57818e-02,-1.00089e-01,1.04770e-01,-1.72885e-02,4.57878e-01,-7.19607e-02,1.77946e-02,-4.34758e-02,2.23453e-01,-9.39962e-03,-4.17517e-02,6.24250e-02,1.39215e-01,9.18371e-02,2.94694e-01,-1.55919e-03,6.86586e-02,2.35412e-01,3.00194e-01,1.17378e-01,1.01722e-01,2.15695e-02,7.54137e-02,-3.72671e-02,-1.40750e-01,-2.85702e-02,-4.02149e-01,1.21631e-01,4.01498e-01,6.56180e-02,-9.92043e-02,-4.93367e-01,-6.47903e-02,1.62078e-01,4.68058e-01,-1.16267e-01,2.80276e-01,7.21641e-02,-4.47230e-02,-1.16642e-01,-9.52337e-02,-4.64884e-02,-8.36464e-02,
-1.08128e+00,-1.37468e-01,-1.23530e-01,-1.25097e-01,1.40105e-03,8.77260e-02,-3.20484e-02,-1.70595e-03,-5.44409e-02,-2.23793e-01,1.22243e-02,-9.29621e-01,-1.24647e+00,-3.09245e-01,4.74166e-02,-1.32751e+00,-6.43300e-05,-1.70624e-01,2.11212e-02,1.44147e-02,6.71299e-03,5.26034e-02,-2.36380e-01,-1.46575e+00,2.33889e-02,-3.11790e-01,-4.29232e-02,-1.56514e-01,-3.09423e-02,5.78041e-02,-1.09441e+00,-9.89480e-01,-1.96286e-01,-3.69479e+00,-3.48959e-01,1.88367e-01,-6.56161e-01,-3.50601e-01,1.50148e-02,-1.13288e-03,-5.36714e-02,1.68375e-01,1.98499e-01,-1.93734e-01,-8.68963e-02,-6.75486e-02,-3.21326e+00,-3.10835e-02,-1.36594e-01,1.95060e-01,
9.89711e-01,4.07426e+00,1.86580e+00,-1.90335e+00,-3.88138e+00,-1.00835e+00,7.43546e-02,1.67867e+00,-4.05826e-01,5.49189e-01,-1.43028e+00,1.09834e+00,1.09241e+00,-2.38799e-01,1.16438e+00,8.38383e-01,3.87961e-01,-1.98516e-03,5.33524e-01,-1.38739e+00,-6.28068e-01,-7.19694e-01,1.68559e+00,-9.64383e-01,1.43471e+00,2.05740e+00,-9.05390e-01,-5.90972e-01,4.42365e-01,-3.30477e-01,2.18317e+00,-7.47921e-02,-6.45806e-02,-1.46574e+00,1.97434e+00,1.95840e+00,-1.66371e-01,1.84573e-01,1.01046e+00,-3.94545e-01,-4.73841e-01,2.72712e+00,3.86137e-01,-2.13301e+00,-8.26713e-01,-1.38244e+00,-1.30081e+00,-1.72912e-01,1.21860e+00,-4.94390e+00,
-2.97066e-01,6.14013e-01,1.77407e-02,9.46948e-02,2.87380e-01,9.04941e-02,6.53066e-01,2.30192e-02,-6.17862e-02,4.54060e-03,-1.76717e-01,7.92746e-01,-4.90113e-02,-6.41461e-02,-4.37274e-02,5.26887e-02,7.52672e-02,1.77165e-02,-4.64038e-01,-8.34514e-01,-2.62235e-01,6.75418e-03,3.21562e-01,-1.26896e-01,1.28644e-02,2.36220e-01,1.66828e-01,1.52963e-01,-1.46779e-01,1.08485e-01,-3.98573e-02,-2.40074e-01,-1.37627e-01,-3.49488e-01,1.96025e-01,3.58787e-01,-1.69672e-01,-8.18495e-02,1.73637e-01,-2.67539e-02,-7.84468e-02,4.24027e-03,-2.81483e-01,4.70937e-01,6.16303e-02,-4.52246e-03,-3.91235e-01,6.78407e-02,-6.29347e-02,6.44863e-02,
-5.57517e-01,-1.73367e-01,3.92317e-02,2.17549e-02,-1.08408e-01,5.25476e-02,-1.41054e+00,-1.09867e-03,-2.86282e-02,3.67939e-02,-3.41302e-02,-4.49300e-03,6.93375e-02,-7.83904e-03,-5.10357e-03,-4.39498e-02,-5.03220e-02,-5.20081e-02,-3.50051e-02,1.78303e-01,1.00060e-02,1.99975e-02,-9.54596e-02,-1.54273e-02,8.57445e-02,-1.05056e-01,-1.13937e-01,-1.46062e-01,2.34869e-02,1.69509e-02,9.83037e-02,1.01986e-03,2.10366e-03,-3.32019e+00,-2.03053e-01,1.10608e-01,-1.68485e-01,-6.09527e-02,5.80966e-02,-1.33487e-02,-2.44754e-03,1.18568e-01,-1.70434e+00,-4.30372e+00,-3.54869e-02,-1.06948e-01,-1.77703e-01,-7.65853e-03,1.31175e-02,2.75693e-02,
2.04695e-02,2.23643e-02,-2.43812e-02,1.46298e-02,-4.15361e-02,8.20518e-03,-8.92246e-03,3.17230e-02,5.54882e-03,-8.77494e-03,-5.48525e-02,2.74748e-02,-2.21081e-02,9.06296e-03,-1.14823e-02,-4.65796e-02,-4.35750e-02,1.99864e-02,-3.31047e-02,4.71855e-02,-4.60060e-03,-2.84358e-02,1.56292e-02,2.07335e-02,1.24492e-02,-4.32942e-02,1.84170e-02,1.62350e-02,-2.74217e-02,-3.01965e-02,1.75510e-02,-9.25177e-03,-1.56196e-02,-2.67814e-02,1.85272e-02,3.58673e-02,-9.46765e-03,3.24075e-02,-5.84109e-02,-2.49332e-02,-3.15923e-02,-1.84504e-02,-2.36654e-02,-6.49219e-03,-3.47870e-02,-2.22095e-02,1.05350e-02,7.56894e-03,-1.46840e-04,-3.62273e-02,
-1.06109e-01,1.29134e+00,1.76848e+00,4.30765e-02,-3.86096e+00,-1.63331e-01,1.33054e-01,-2.37161e-01,-2.97430e-01,-4.70672e-01,-2.22604e-01,1.35846e-01,1.25050e+00,4.24474e-01,-2.99868e-01,3.62121e-01,-1.47281e-01,-2.40455e+00,1.10839e+00,-6.94552e-01,1.58308e-01,-1.46809e-02,9.40230e-01,2.30274e-01,-1.99997e+00,-1.17152e+00,7.39364e-01,-2.64069e-01,8.87211e-02,-1.30809e-01,-3.99161e-01,2.56588e+00,1.88564e-01,-6.10672e-01,1.71534e-01,2.71985e-01,-2.12644e-01,-4.35062e+00,-3.05392e-01,-7.50207e-03,-8.45502e-02,5.46064e-01,1.02345e+00,1.74517e-01,-6.96105e-01,-6.98052e-02,8.29527e-01,-6.10170e-01,2.92604e-01,-6.04097e-01,
-2.47721e-02,1.15411e-02,-7.97831e-02,1.59416e-01,-4.32132e+00,-1.28512e+00,-4.26018e-01,-5.86032e-01,-6.28205e-02,-1.27192e+00,8.48030e-03,-1.60213e-01,7.17192e-03,1.29334e-02,-1.44258e-02,-5.14333e-04,4.61299e-02,-2.91068e-02,-1.23271e-02,6.19209e-02,-2.66237e-01,-2.67065e-02,1.05504e-02,-4.51933e-01,1.54839e-02,-2.38927e-01,-8.14344e-02,8.01853e-02,-9.08032e-03,1.16715e-03,4.93173e-02,-2.83162e-01,-8.49688e-01,-2.54529e+00,2.57275e-02,-2.27548e-02,-5.63317e-03,-1.46518e-01,-1.21448e-01,-2.39600e+00,1.79936e-02,1.96952e-01,-9.68114e-01,-4.55727e-01,4.59094e-03,-6.69994e-02,-2.47361e+00,-2.65842e-01,-9.06243e-03,-9.28452e-01,
1.39598e-01,1.06516e+00,4.90222e-01,-2.17528e+00,3.12607e+00,-1.03600e+00,-1.36770e+00,-1.55669e-01,-1.36504e+00,-5.77323e-02,-1.46329e+00,3.22127e-01,-3.44826e-01,-5.33350e-01,1.38585e+00,9.72806e-01,1.30979e-01,3.41940e-01,4.37981e-01,1.19979e+00,-1.57584e+00,1.13948e+00,3.55384e-01,2.03494e-01,2.49731e-01,1.93146e-01,-7.87124e-02,8.93741e-02,-1.13896e+00,2.95369e-01,1.89263e-01,-1.47230e-01,-2.12372e-01,-4.28334e-01,2.33303e-01,-9.10525e-01,-9.70898e-01,-4.58900e-01,-1.75602e+00,-5.34490e-01,6.64932e-01,2.32254e+00,-9.81046e-01,1.99706e+00,-2.27080e+00,7.43042e-02,1.42296e-01,-3.29678e+00,-2.96859e-01,3.14083e+00,
-8.25566e-01,-6.99428e-01,-3.26328e-01,-1.77177e+00,2.77596e-01,5.54270e-01,8.12694e-01,9.35800e-04,-1.11042e-02,-4.16980e-02,-8.06400e-02,6.54729e-01,-2.24050e-01,-2.27632e-01,3.32717e-01,1.66856e-01,1.22917e-01,-1.77598e-01,-2.78342e+00,-5.57288e-01,-1.39633e+00,5.71400e-02,2.00463e-01,2.05907e-01,2.93394e-01,3.27247e-01,-3.36302e-02,-7.91815e-02,-1.50883e+00,1.39020e-01,4.02293e-02,-1.08505e+00,-1.45548e-01,-3.46729e-01,1.92204e-01,-3.52005e-01,-5.74401e-01,-9.86989e-02,8.46192e-02,-1.25445e-01,-1.94657e-01,-1.76553e-01,-3.58886e-01,6.92877e-01,1.53098e-01,8.99646e-02,-4.13342e-01,2.48388e-01,-3.34103e-01,7.39906e-02,
-2.29304e-01,-6.35595e-02,-2.05670e-01,-3.51613e-02,8.23049e-02,-1.56062e-02,7.02336e-01,-3.57350e-02,-1.34542e-01,-1.72913e-01,8.17171e-02,-8.46514e-03,-4.92361e-03,4.56520e-02,-1.90306e-02,1.61979e-01,3.76816e-02,2.19864e-02,-1.60011e-01,-3.16523e-01,3.66427e-03,7.15392e-02,-8.49684e-02,2.68497e-01,1.93233e-01,-4.21774e-01,-2.02102e-02,1.36298e-01,5.74725e-03,-8.29131e-02,-4.09926e-02,-2.08146e-01,5.51996e-02,-1.28617e-01,4.54432e-02,3.06461e-01,-1.03268e-02,-5.90751e-02,2.01689e-02,2.07485e-02,1.13161e-01,9.90744e-02,9.31920e-02,-7.98230e-03,-6.80220e-02,6.70204e-02,-5.52199e-02,-7.87001e-02,-7.27348e-03,-6.62526e-02,
2.21196e-02,-1.65367e-01,1.68003e-01,4.21288e-02,-1.21394e+00,2.00251e-02,-6.28962e-01,-1.33426e-01,1.67305e-02,-2.71999e-01,3.75864e-02,-1.94173e+00,1.67646e-01,2.26119e-01,5.42029e-02,-3.81861e-02,-8.07648e-01,-4.95538e-02,-5.37396e-01,-3.75613e-02,1.66447e-02,-6.54579e+00,3.56309e-01,4.59758e-03,-2.63437e+00,3.16671e-02,-4.19871e-02,-2.64972e+00,-2.39046e-02,-9.48108e-02,-3.57081e+00,1.65673e-01,-5.10214e-02,1.48107e-02,2.44074e-01,8.30310e-01,-1.40578e-02,2.41112e-03,-3.57477e-02,3.32610e-02,-1.09669e-01,-7.52481e-01,5.90674e-02,-5.83187e+00,-9.40360e-01,6.56999e-02,-2.00356e-01,-1.44436e-02,-7.19037e-01,-3.52492e-01,
-5.72330e-01,1.19985e-01,3.47008e-01,-1.91082e-02,-2.02650e+00,-2.41659e-01,6.64611e-01,-2.86581e-01,-2.38326e-01,4.56413e-01,-2.03139e-01,3.86155e-03,1.73212e-01,7.84512e-02,-6.44120e-01,6.55710e-01,-1.50620e-01,3.27121e-01,-1.42433e-02,6.78225e-02,2.42918e-01,-3.26183e-02,-1.07817e-01,1.42182e-01,-1.35864e-01,-1.00591e-01,1.54602e-01,3.12159e-01,1.82656e-01,8.15216e-03,2.47981e-02,-1.06975e+00,-5.63178e-02,-7.15490e-02,9.88105e-02,6.33944e-01,2.58378e-01,-6.66554e-01,8.46051e-02,3.53507e-01,2.99379e-01,3.24931e-01,1.21140e-01,5.70172e-01,3.67140e-01,-1.57905e-01,1.43912e-01,-9.17290e-01,-5.04578e-02,1.18360e+00,
-5.09607e-01,5.44226e-01,1.54673e-02,-1.45282e-02,1.84382e-01,-8.09191e-02,-3.35228e+00,-3.83576e-01,8.71236e-02,5.14583e-02,-1.78609e-01,2.69001e-01,6.37278e-01,-1.57480e-01,-7.82848e-02,4.17276e-02,-9.66654e-01,-8.21287e-02,3.61521e-01,-2.80147e-01,7.82106e-02,1.88711e-02,3.64249e-01,-8.43884e-02,2.18902e-01,2.67508e-02,6.33992e-02,5.73536e-02,-7.37519e-03,-9.15263e-03,5.74642e-02,9.47067e-02,-3.18040e-02,-5.39626e-02,2.12412e-02,-4.61427e-01,3.11155e-02,-5.80483e-02,-2.04121e-01,-1.34077e-01,-1.22187e-01,-8.99907e-01,-1.06885e-01,3.02970e-02,5.62229e-03,-7.19945e-02,-6.79367e-02,-2.71104e-02,-3.90149e-02,-2.15531e-02,
-1.48583e-01,-5.99085e-01,-7.02443e-01,-4.08774e-01,-9.92477e-01,-3.29529e-02,-2.58286e+00,-1.82210e-01,1.83569e-02,-3.87911e-01,6.75498e-02,-1.34988e+00,2.75332e-01,2.50405e-01,-2.92641e-01,4.89432e-02,-4.73704e-02,-4.28604e-02,9.94747e-01,-8.08518e-01,-6.51653e-02,3.48738e-01,4.62446e-03,-2.20226e-01,5.85267e-01,-3.44758e-01,2.18215e-01,-1.56779e-02,-2.81656e-01,-8.64233e-01,-2.14653e+00,4.19538e-01,-5.05128e-02,6.09912e-02,1.95051e-01,2.58263e-01,4.56483e-02,-2.54889e-01,-6.69360e-01,8.05366e-02,-3.21172e-01,-3.21280e-02,-1.14123e-01,-1.39592e-01,-1.22901e-01,-2.77908e-02,4.17068e-03,-4.43716e-02,-8.90137e-02,-1.16509e+00,
1.63073e+00,-8.04304e-01,5.54447e-01,4.46609e-01,1.58161e+00,-2.16981e+00,-2.59875e-03,1.16568e+00,7.45952e-01,-2.19551e+00,-2.77670e-01,3.01681e-01,8.91371e-01,1.33826e-01,4.70900e-01,8.51671e-01,-1.78697e-01,-3.76001e-01,1.14082e-01,9.11060e-03,-1.76273e-01,-8.10104e-02,-1.45045e+00,3.43141e-01,8.20383e-01,-7.69550e-01,-3.12880e-01,-1.23231e+00,7.56924e-02,-7.43130e-01,-9.51857e-01,-3.91796e-01,-4.20542e-01,-6.94005e-01,-7.50038e-01,3.69718e-01,-2.42508e-01,-9.70563e-01,1.42606e-01,-1.43630e-01,-6.46270e-01,-2.76156e+00,-3.89172e-01,-3.00937e+00,-2.07266e-01,-2.76476e-01,-1.20257e+00,3.34938e-01,-6.25709e-03,-3.06799e+00,
-2.65606e+00,-1.10162e-01,4.18359e+00,2.50344e-01,-1.28001e-01,1.97310e-01,4.07368e-01,-3.08367e+00,-4.65131e+00,-5.81463e-01,1.62585e-01,5.86748e-01,-1.81408e+00,7.49374e-01,1.60423e-03,-9.29596e-01,1.61172e+00,1.25676e+00,2.28565e+00,-3.98001e-02,6.03038e-01,-1.17999e+00,2.71755e+00,-3.95836e+00,-7.01180e+00,-1.61352e-01,-3.76965e+00,1.63827e+00,4.92433e-01,-8.76016e-02,7.95290e-01,2.47413e+00,-3.14537e+00,-3.82414e+00,-9.71182e-01,3.77899e-01,1.28780e+00,-4.01025e+00,4.67711e+00,3.26999e-01,-9.81785e-01,3.08456e+00,-4.83750e+00,5.27992e+00,-1.75751e-01,-7.54587e-01,-1.70620e+01,-4.20900e-01,-9.43849e-02,2.11235e+00,
-8.45734e-01,-3.76550e+00,-2.96207e+00,-1.05373e+00,-1.77945e+00,9.17443e-02,-1.56310e+00,3.08609e-01,-8.56501e-01,4.98790e-01,1.93344e-01,1.73346e-01,-2.01154e+00,3.20383e-01,-1.92578e+00,4.15064e-01,8.93473e-02,-8.46933e-01,6.07145e-01,3.36761e-03,-3.27119e+00,4.11603e-01,-9.61912e-01,-2.14449e+00,5.01403e-01,-1.24208e+00,3.61509e-01,-2.15189e-01,-3.87603e-01,-3.01823e+00,-7.55608e+00,-1.06510e+00,-1.22019e+00,2.61776e-01,3.43727e+00,1.02511e+00,1.12977e-01,-3.40476e-01,-7.30456e-01,1.16046e-02,-6.25854e-01,8.32265e-01,-1.56536e+00,-4.67077e+00,-5.59236e-01,-2.26541e-01,-1.13334e+00,-4.62685e-01,-1.11912e+00,9.06307e-01,
-1.00651e+00,-3.00287e+00,2.41322e+00,-7.55737e-01,1.95889e+00,1.00442e+00,-1.33361e-01,-2.20772e+00,-5.16304e+00,7.01445e-01,-7.88600e-01,-3.74700e-01,-4.11133e+00,3.80228e-01,-7.22390e+00,1.15643e-02,-1.15882e-01,-1.30545e+00,1.09068e+00,-1.23268e+00,-2.81065e-02,1.95347e+00,-4.06534e-01,-1.61877e+00,-2.78562e+00,-2.39230e+00,-8.62198e+00,1.49202e+00,1.46068e+00,1.46353e-01,-1.34590e+00,1.04160e+00,2.99185e-01,-2.57638e+00,2.49094e+00,-6.65705e+00,-3.40465e-01,-1.21372e+00,-2.05729e-01,8.70291e-01,-2.34177e+00,1.90094e+00,-5.77730e-01,-1.29747e+00,-2.68709e-02,5.58905e-01,-1.23655e+00,1.60945e-01,4.59212e-01,-1.67483e-01,
-4.94978e-02,3.80365e-01,3.11537e-01,-4.03161e-02,2.66516e-02,-3.19796e-02,7.04170e-02,3.34328e-02,9.23320e-02,7.57947e-03,-1.39858e-01,9.45668e-02,1.53476e-01,-7.38589e-03,-3.72646e-02,1.99412e-01,-1.71761e-02,-1.27785e-01,1.26030e-01,-1.19354e-01,2.84966e-02,-1.95649e-01,2.79232e-01,-1.42558e-02,1.98941e-03,2.49823e-01,9.61600e-02,-1.61666e-02,7.88119e-03,3.71048e-02,-3.61013e-01,-5.24793e-02,9.73183e-02,-1.81518e-01,-1.40221e-01,1.69871e-01,2.74222e-02,-3.82272e-02,9.27616e-02,2.34133e-02,2.80618e-01,-4.74918e-01,8.51394e-03,-1.74766e-01,-3.73201e-02,1.15171e-02,3.67524e-02,2.13810e-02,-7.88198e-02,1.92415e-02,
7.96714e-03,-1.73872e+00,3.02138e-01,2.73523e-02,-6.68215e-01,2.70449e-02,6.20769e-01,1.13130e-01,-4.51071e-02,7.61224e-02,-2.77418e-02,-8.65348e-01,-5.80881e-02,1.40428e-02,4.47047e-02,1.52755e-01,-1.39794e-02,2.19355e-02,-1.93520e-01,3.81752e-01,-1.35727e-02,7.79330e-02,3.41853e-01,-3.92433e-05,-3.98344e-01,1.68768e-01,2.01658e-01,-5.12623e-02,1.42572e-03,6.33812e-02,-2.06113e-01,-4.41063e-02,-5.09791e-02,-4.87121e-02,1.22994e-01,1.60982e-01,-8.01197e-03,-2.88684e-02,7.13987e-02,1.72814e-02,-8.51666e-02,-3.16498e-01,-7.44347e-02,-2.23029e-01,-1.80281e-02,-9.63453e-02,-1.15816e+00,4.44255e-02,5.31705e-02,-1.03017e-01,
-7.10425e-01,5.89588e-02,2.00475e-01,-3.00580e-02,5.42728e-01,-1.91994e-01,3.94099e-01,-1.36688e-01,-8.01518e-02,2.88179e-01,-7.30109e-02,-5.58507e-03,2.43835e-01,5.29102e-02,-3.65227e-01,3.97518e-01,-4.75505e-01,1.42584e-01,-1.51283e-02,2.45332e-01,1.52183e-01,-7.35228e-02,1.12277e-01,2.05124e-02,-7.20063e-02,-1.33600e-01,5.17994e-02,1.73052e-01,1.11022e-01,1.65345e-02,1.03496e-02,-4.69609e-01,-3.23967e-02,-1.94593e-02,1.06448e-01,-3.53901e-01,1.43677e-01,-2.38162e-01,1.59108e-01,6.89775e-02,1.08660e-01,3.51913e-01,-6.41982e-02,2.68825e-01,2.02058e-01,-8.14643e-02,-3.79322e-03,-4.11356e-01,1.26708e-02,5.60790e-01,
-2.83984e-01,2.41602e-01,2.44167e-02,-2.94464e-02,-4.54010e-01,6.12081e-01,1.10344e+00,-9.75357e-02,7.76575e-02,-1.40490e-02,5.06629e-02,1.10922e+00,2.69311e-01,7.03949e-02,-1.64147e-02,2.25636e-01,-1.06372e-02,4.28620e-01,1.37219e-01,-3.05646e-01,-1.98569e-02,5.89249e-02,-8.79514e-02,6.62081e-02,1.87428e-01,4.97540e-01,-1.66954e-02,-2.33702e-01,1.27740e-02,4.75872e-02,-2.81638e-01,-7.54977e-01,3.15460e-02,-4.26795e-01,8.27129e-02,1.45670e+00,6.94925e-02,-1.17242e-01,7.94632e-02,-2.13157e-02,1.25247e-02,-1.07847e-01,-2.39133e-02,-3.15095e-01,-1.71907e-01,4.86965e-02,-2.74579e-02,2.93453e-02,-3.25373e-02,-4.14609e-01,
1.14592e-02,7.35028e-01,-5.64581e-02,-1.72334e-01,-4.95945e-01,-1.63565e-02,6.72066e-01,-1.62966e-03,-5.96325e-01,-4.16657e-02,4.61259e-02,1.10109e+00,1.02806e-01,-6.57672e-02,9.04383e-02,-2.11108e-01,1.43076e-01,-2.14133e-01,2.97200e-01,-1.52929e-01,-5.88315e-03,3.35390e-01,2.39746e-02,1.36893e-03,2.48577e-01,-2.06479e-02,-6.55068e-03,-5.88651e-02,1.49066e-01,-4.57491e-01,-3.49109e-01,1.48945e-02,4.49572e-03,2.44004e-03,2.71325e-01,-6.23069e-02,-2.12814e-02,1.37222e-02,2.34307e-02,-2.01943e-02,-1.43801e-01,-1.06321e-01,-1.94373e-02,-2.88683e-01,6.18199e-02,-4.63239e-02,-1.21636e-02,-1.56882e-02,-5.48695e-03,1.93332e-02,
-4.30061e-01,
-2.45742e-02,
-1.85737e+00,
-1.38152e-02,
4.19247e-01,
-2.13587e-01,
1.60070e-01,
7.41838e-01,
8.46945e-03,
-7.26034e-01,
-4.74206e+00,
6.94902e-02,
-3.32740e-01,
4.58429e-01,
-1.03401e+00,
-4.36594e-01,
8.70681e-02,
-1.17479e+00,
2.95038e-01,
6.48180e-01,
5.96977e-01,
-2.17556e+00,
-1.11059e+00,
-4.29719e-01,
2.41840e-01,
1.61132e-01,
1.03251e-01,
1.90621e-01,
-2.56281e+00,
4.28494e-01,
1.65919e-01,
-4.13155e-02,
-3.21202e+00,
1.65723e-02,
-1.44951e+00,
-2.12717e-01,
9.63620e-02,
-1.83611e-01,
-5.54534e-01,
3.39886e-01,
3.66640e-01,
1.18725e+00,
-7.00660e+00,
8.64816e-01,
-4.08665e+00,
1.90657e-01,
4.38984e-01,
-6.64789e-01,
-1.14347e-01,
1.21706e-01,
-1.00490e-03,1.77588e-02,6.44684e-03,1.00598e-02,2.15751e-03,2.41695e-02,2.07160e-02,3.25348e-03,3.76957e-02,5.37383e-02,3.96667e-03,2.95171e-04,8.44118e-03,4.30048e-03,5.53546e-05,2.70628e-02,4.22983e-03,-1.69606e-02,4.33998e-03,5.67525e-02,6.00247e-02,3.47097e-02,1.04634e-03,9.25969e-03,1.04904e-02,-6.27135e-02,1.29801e-02,1.43107e-01,1.55933e-04,9.09701e-03,1.86967e-01,1.09487e-02,-1.54135e-02,3.66418e-01,-4.64881e-03,-1.05615e-02,3.46626e-02,3.54153e-02,-7.77726e-04,3.85740e-03,4.19073e-03,-1.72908e-02,6.28022e-03,-1.46312e-02,5.26843e-03,2.35743e-02,1.81072e-02,-1.14841e-03,1.16412e-02,-4.97452e-03,
-1.60923e-03,2.38133e-02,7.46871e-03,-3.13060e-03,-2.80990e-03,2.28730e-02,2.36429e-02,8.20832e-03,4.33519e-02,5.18454e-02,-9.74907e-04,-2.45709e-04,3.99484e-03,-8.09352e-03,-7.29084e-03,1.95302e-02,-8.45971e-03,-2.80780e-02,2.22410e-03,6.69689e-02,5.56077e-02,3.75405e-02,8.12147e-03,-1.06021e-02,1.40604e-02,-1.13678e-02,2.48419e-02,1.74828e-01,1.45279e-02,1.00504e-02,2.01379e-01,2.06927e-02,-1.40340e-02,4.13943e-01,-1.12926e-02,-4.36394e-03,3.29306e-02,2.33757e-02,2.94505e-02,1.55092e-02,-2.07847e-03,-2.57482e-02,1.32770e-02,-1.34533e-02,1.97653e-03,2.45503e-02,2.00014e-02,-5.15162e-02,1.12730e-02,-8.87692e-03,
3.17032e-02,2.12332e-02,-4.98239e-03,2.76194e-02,2.03134e-02,2.17319e-02,1.20344e-02,-6.28760e-03,4.11111e-02,5.82644e-02,9.41772e-03,1.53711e-02,2.89061e-02,1.30497e-02,2.92384e-03,2.52006e-02,-1.02096e-02,-1.21320e-02,1.39771e-02,6.93007e-02,5.26067e-02,3.74207e-02,-2.58324e-03,-6.97084e-03,3.10848e-03,-1.35615e-02,2.04092e-02,1.59073e-01,1.64534e-03,1.90926e-02,1.99540e-01,1.33324e-02,-1.11085e-02,4.00429e-01,-3.65827e-03,-1.75431e-02,3.16598e-02,3.06686e-02,-1.18986e-03,-1.00581e-02,2.21781e-03,-1.67647e-02,-7.80408e-04,-2.45084e-02,2.07162e-02,1.52769e-02,2.14738e-02,2.84946e-03,1.94173e-02,-9.55315e-03,
3.86038e-03,1.59409e-02,1.25385e-02,4.46224e-03,-2.79642e-02,2.42819e-02,8.00875e-03,2.42513e-02,-4.29988e-03,5.97856e-02,-1.14641e-02,-1.91129e-02,4.06634e-03,-1.23403e-02,-1.65000e-02,2.48731e-02,2.29474e-02,-2.87024e-02,-1.10197e-02,4.60935e-02,5.86005e-02,3.64215e-02,2.28337e-02,1.47448e-02,1.50308e-02,-1.41495e-02,2.87788e-02,1.34752e-01,2.10016e-02,-1.44816e-02,1.46935e-01,4.79544e-03,-1.90160e-02,1.98699e-01,-9.20700e-03,1.75599e-02,4.21516e-02,3.91117e-02,3.13064e-02,1.97998e-02,-2.45558e-02,-3.48254e-02,1.42149e-02,1.62112e-02,-1.02774e-02,2.69725e-02,1.88189e-02,-5.82468e-02,-1.00225e-02,-9.96510e-03,
3.29740e-02,-3.21035e-03,-7.30703e-03,1.42817e-02,3.09295e-02,2.67673e-02,2.29176e-02,-2.24140e-02,4.61009e-03,5.24488e-02,1.78036e-02,2.93894e-02,2.78019e-02,2.45190e-02,1.20456e-02,3.47380e-02,2.26422e-02,1.85986e-03,2.31078e-02,5.06335e-02,5.19765e-02,3.55480e-02,-2.09633e-02,5.19522e-03,-1.29484e-02,-1.84528e-02,-5.44930e-03,9.64997e-02,-1.13055e-02,2.43227e-02,1.34838e-01,8.60237e-03,-1.68496e-02,2.04973e-01,1.31377e-02,-2.45341e-02,3.75603e-02,3.36533e-02,1.47645e-03,-1.03691e-02,1.88854e-02,-4.69537e-03,-3.16553e-03,-3.83990e-02,1.55334e-02,2.36700e-02,1.62628e-02,-3.40823e-03,2.12921e-02,-8.07586e-03,
-1.02815e-02,
-1.58668e-02,
-1.54823e-02,
-1.53360e-02,
-1.48281e-02,
